{"learner":{"attributes":{"scikit_learn":"{\"_estimator_type\": \"regressor\"}"},"feature_names":[],"feature_types":[],"gradient_booster":{"model":{"gbtree_model_param":{"num_parallel_tree":"1","num_trees":"15"},"iteration_indptr":[0,1,2,3,4,5,6,7,8,9,10,11,12,13,14,15],"tree_info":[0,0,0,0,0,0,0,0,0,0,0,0,0,0,0],"trees":[{"base_weights":[-4.4393004E-4,8.8040787E-1,-1.5918882E-1,9.5564073E-1,4.1808566E-1,-3.5769352E-1,1.495812E-1,9.854926E-1,7.482169E-1,7.5428164E-1,2.0174302E-1,1.7523125E-1,-4.0601343E-1,3.180042E-1,-1.2369848E-1,6.968829E-1,9.227289E-1,3.8474545E-1,8.4227526E-1,8.0279493E-1,-3.2490656E-1,3.4488565E-1,-1.3158323E-1,4.0581825E-1,-1.9289154E-1,-4.4068787E-1,4.051924E-1,2.2779322E-1,6.2990856E-1,-2.3068365E-1,5.4120785E-1,9.407456E-1,5.403757E-1,2.5739717E-1,8.2149357E-1,8.878138E-1,6.99216E-1,9.051915E-1,4.3157512E-1,-6.0202245E-2,5.708884E-1,-2.60086E-2,-4.8012674E-1,1.3625422E-1,7.008145E-1,-6.0241193E-2,-5.835678E-1,-5.1896584E-1,-2.1572708E-1,5.909619E-1,1.668077E-1,7.2226167E-1,1.638381E-1,5.542061E-1,8.864549E-1,-2.9204965E-1,4.4527483E-1,5.682147E-1,-4.0295398E-1,6.893496E-1,8.522368E-1,4.3589368E-1,6.560549E-2,4.3569222E-1,6.291385E-1,6.5721995E-1,8.4276307E-1,3.9533135E-1,8.0905396E-1,9.403365E-1,7.024844E-1,5.414182E-1,3.187055E-2,9.796122E-2,-1.5388185E-1,6.112685E-1,5.462608E-1,-1.5209742E-1,2.0243897E-1,-2.617576E-1,-4.9116614E-1,-1.6086009E-1,2.0967267E-1,7.8536546E-1,4.148553E-1,-4.1644135E-1,9.864746E-2,-4.7168195E-1,-6.850473E-1,-4.5832342E-1,-7.398664E-1,-1.3957806E-1,-5.552686E-1,4.2958578E-1,7.840441E-1,2.6333782E-1,-1.529809E-1,5.057199E-1,8.2897806E-1,6.747396E-2,3.8739297E-1,4.4361755E-1,6.771811E-1,8.1501424E-1,6.7455596E-1,-1.5000288E-1,-5.357999E-1,5.113666E-1,-4.4071063E-1,4.4339716E-1,7.6662385E-1,4.5074353E-1,6.3486415E-1,2.5753573E-1,4.2269966E-1,1.0780814E-2,1.8967585E-1,5.455098E-1,6.33954E-1,6.20962E-1,4.1100198E-1,6.771655E-1,5.851688E-1,5.839698E-1,3.3930665E-1,4.3731296E-1,2.8569648E-1,-7.759393E-2,1.9490506E-1,-1.3396123E-1,4.052098E-2,4.091006E-1,2.6835832E-1,1.9664938E-2,-1.9327167E-1,2.2567582E-1,-3.3737555E-2,-1.6300799E-1,3.2171838E-2,2.626107E-1,7.18125E-2,5.90228E-1,4.0329543E-1,1.6036302E-1,3.8922748E-1,-3.8391456E-1,-2.3804957E-1,-6.7432165E-2,1.16428554E-1,-4.115702E-1,-2.0838594E-1,-3.511721E-1,-1.4113113E-1,-4.9100423E-1,-6.718301E-1,-1.4255658E-1,4.6113126E-2,-3.4124544E-1,-6.818157E-1,-3.5607424E-1,3.2510984E-1,6.222989E-1,1.7019166E-1,1.3569984E-1,3.2513925E-1,-4.9419317E-2,-4.9548605E-1,5.1677394E-1,2.3308334E-1,6.526258E-1,5.22932E-1,1.9418812E-1,1.7750005E-3,2.4086984E-1,5.4181325E-1,4.1663826E-1,2.6827815E-1,4.454796E-1,6.0856843E-1,5.1411605E-1,6.252808E-1,-1.755751E-1,5.623135E-2,-3.3204994E-1,-6.544228E-1,2.732184E-1,4.6168196E-1,-9.61974E-2,-5.9175867E-1,2.500638E-1,5.268203E-1,4.6613455E-1,5.90588E-1],"categories":[],"categories_nodes":[],"categories_segments":[],"categories_sizes":[],"default_left":[0,0,0,0,0,0,0,0,0,0,0,0,0,0,0,0,0,0,0,0,0,0,0,0,0,0,0,0,0,0,0,0,0,0,0,0,0,0,0,0,0,0,0,0,0,0,0,0,0,0,0,0,0,0,0,0,0,0,0,0,0,0,0,0,0,0,0,0,0,0,0,0,0,0,0,0,0,0,0,0,0,0,0,0,0,0,0,0,0,0,0,0,0,0,0,0,0,0,0,0,0,0,0,0,0,0,0,0,0,0,0,0,0,0,0,0,0,0,0,0,0,0,0,0,0,0,0,0,0,0,0,0,0,0,0,0,0,0,0,0,0,0,0,0,0,0,0,0,0,0,0,0,0,0,0,0,0,0,0,0,0,0,0,0,0,0,0,0,0,0,0,0,0,0,0,0,0,0,0,0,0,0,0,0,0,0,0,0,0,0,0,0,0],"id":0,"left_children":[1,3,5,7,9,11,13,15,17,19,21,23,25,27,29,-1,31,33,35,37,-1,39,41,43,45,47,49,51,53,55,57,59,-1,61,63,65,67,69,71,73,75,77,79,81,83,85,87,89,91,93,95,97,99,101,103,105,107,109,-1,-1,111,113,115,-1,-1,-1,117,-1,119,121,123,125,-1,127,129,-1,131,133,135,-1,-1,137,139,141,143,145,147,149,-1,151,153,155,157,159,161,163,165,167,169,171,173,175,177,179,-1,181,183,185,187,189,191,-1,-1,-1,-1,-1,-1,-1,-1,-1,-1,-1,-1,-1,-1,-1,-1,-1,-1,-1,-1,-1,-1,-1,-1,-1,-1,-1,-1,-1,-1,-1,-1,-1,-1,-1,-1,-1,-1,-1,-1,-1,-1,-1,-1,-1,-1,-1,-1,-1,-1,-1,-1,-1,-1,-1,-1,-1,-1,-1,-1,-1,-1,-1,-1,-1,-1,-1,-1,-1,-1,-1,-1,-1,-1,-1,-1,-1,-1,-1,-1,-1,-1],"loss_changes":[8.303123E4,3.1533516E3,3.0837812E4,4.821172E2,9.2295874E2,7.8861562E3,9.061842E3,4.2101562E1,3.3522852E2,2.940901E2,3.685682E2,2.161183E3,7.898168E3,3.4272598E3,5.340423E3,0E0,2.4876953E1,1.1211737E2,5.0171387E1,1.8126978E2,0E0,4.9473914E2,8.5398224E1,1.24474E3,5.0815024E2,4.741715E3,5.096422E2,2.9878506E3,5.302217E2,2.6826204E3,3.1418506E2,3.1962402E1,0E0,5.355213E1,6.447632E0,1.2806641E1,2.7414612E1,2.6018799E1,4.38705E1,2.870037E1,2.5350952E1,5.137656E1,1.2430588E1,1.784911E2,1.8038916E2,4.1441666E2,1.0940436E2,2.675707E3,1.7972288E3,2.0122412E2,1.5570598E2,2.4963525E2,1.8023418E3,2.8668994E2,3.354297E1,2.0526533E3,3.154104E2,2.512793E2,0E0,0E0,3.1367432E1,9.032791E0,7.7864676E0,0E0,0E0,0E0,1.1865723E1,0E0,1.7425842E1,8.191895E0,1.5585632E1,8.692413E0,0E0,2.7192638E1,9.667507E0,0E0,1.9733704E1,2.5685295E1,1.908824E1,0E0,0E0,2.4160397E1,1.1621698E2,6.928467E1,4.4662415E1,2.2584442E1,6.683977E1,3.9049316E1,0E0,1.7441875E3,3.629336E2,7.474866E2,3.6091577E2,1.15551636E2,1.6691138E2,5.405069E1,5.3425064E1,1.433476E2,6.0666016E1,7.9705347E2,4.215525E2,1.0146216E2,7.7751465E1,1.9763428E1,0E0,8.698945E2,5.348135E2,8.9599976E1,4.5806976E1,1.659541E2,2.9884033E1,0E0,0E0,0E0,0E0,0E0,0E0,0E0,0E0,0E0,0E0,0E0,0E0,0E0,0E0,0E0,0E0,0E0,0E0,0E0,0E0,0E0,0E0,0E0,0E0,0E0,0E0,0E0,0E0,0E0,0E0,0E0,0E0,0E0,0E0,0E0,0E0,0E0,0E0,0E0,0E0,0E0,0E0,0E0,0E0,0E0,0E0,0E0,0E0,0E0,0E0,0E0,0E0,0E0,0E0,0E0,0E0,0E0,0E0,0E0,0E0,0E0,0E0,0E0,0E0,0E0,0E0,0E0,0E0,0E0,0E0,0E0,0E0,0E0,0E0,0E0,0E0,0E0,0E0,0E0,0E0,0E0,0E0],"parents":[2147483647,0,0,1,1,2,2,3,3,4,4,5,5,6,6,7,7,8,8,9,9,10,10,11,11,12,12,13,13,14,14,16,16,17,17,18,18,19,19,21,21,22,22,23,23,24,24,25,25,26,26,27,27,28,28,29,29,30,30,31,31,33,33,34,34,35,35,36,36,37,37,38,38,39,39,40,40,41,41,42,42,43,43,44,44,45,45,46,46,47,47,48,48,49,49,50,50,51,51,52,52,53,53,54,54,55,55,56,56,57,57,60,60,61,61,62,62,66,66,68,68,69,69,70,70,71,71,73,73,74,74,76,76,77,77,78,78,81,81,82,82,83,83,84,84,85,85,86,86,87,87,89,89,90,90,91,91,92,92,93,93,94,94,95,95,96,96,97,97,98,98,99,99,100,100,101,101,102,102,103,103,105,105,106,106,107,107,108,108,109,109,110,110],"right_children":[2,4,6,8,10,12,14,16,18,20,22,24,26,28,30,-1,32,34,36,38,-1,40,42,44,46,48,50,52,54,56,58,60,-1,62,64,66,68,70,72,74,76,78,80,82,84,86,88,90,92,94,96,98,100,102,104,106,108,110,-1,-1,112,114,116,-1,-1,-1,118,-1,120,122,124,126,-1,128,130,-1,132,134,136,-1,-1,138,140,142,144,146,148,150,-1,152,154,156,158,160,162,164,166,168,170,172,174,176,178,180,-1,182,184,186,188,190,192,-1,-1,-1,-1,-1,-1,-1,-1,-1,-1,-1,-1,-1,-1,-1,-1,-1,-1,-1,-1,-1,-1,-1,-1,-1,-1,-1,-1,-1,-1,-1,-1,-1,-1,-1,-1,-1,-1,-1,-1,-1,-1,-1,-1,-1,-1,-1,-1,-1,-1,-1,-1,-1,-1,-1,-1,-1,-1,-1,-1,-1,-1,-1,-1,-1,-1,-1,-1,-1,-1,-1,-1,-1,-1,-1,-1,-1,-1,-1,-1,-1,-1],"split_conditions":[-8.7890625E-1,-1.7578125E-1,1.25E-1,-8.808594E-1,-8.828125E-1,-8.769531E-1,-2.2265625E-1,-5.7421875E-1,-8.7890625E-1,4.5703125E-1,2.421875E-1,-2.421875E-1,-8.125E-1,-8.125E-1,-7.5E-1,2.2537114E-1,5E-1,-1.25E-1,-4.4921875E-1,2.5E-1,-1.0349118E-2,-8.7890625E-1,4.921875E-1,-8.769531E-1,2.8125E-1,-7.03125E-2,-3.3203125E-1,-8.7109375E-1,-3.4375E-1,-8.535156E-1,4.921875E-1,-8.828125E-1,7.412978E-2,-5.8984375E-1,1.25E-1,-7.3046875E-1,-8.769531E-1,2.578125E-1,2.578125E-1,-8.808594E-1,9.375E-1,-8.769531E-1,5.15625E-1,-8.7890625E-1,-5E-1,-8.7890625E-1,5.2734375E-1,1.6796875E-1,2.109375E-1,-2.8125E-1,1.875E-1,2.5E-1,-7.03125E-2,-1.171875E-1,-1.25E-1,1.875E-1,4.6875E-1,-8.4375E-1,-1.4038288E-2,1.2006024E-1,-8.7890625E-1,-6.25E-1,7.8125E-3,1.7179215E-2,5.1493E-2,3.9061308E-2,-8.769531E-1,1.0095107E-2,-5E-1,-8.847656E-1,-1.640625E-1,4.6875E-2,1.4192581E-3,-8.808594E-1,-2.5E-1,3.5583843E-2,-5E-1,-8.808594E-1,-5E-1,-5.050099E-3,-1.21975E-2,-5E-1,-6.9140625E-1,-4.4140625E-1,-8.6328125E-1,-6.484375E-1,-6.953125E-1,-8.769531E-1,-1.2143386E-2,-8.496094E-1,5.15625E-1,-8.515625E-1,5.15625E-1,-9.3359375E-1,-5.625E-1,-3.75E-1,4.921875E-1,-8.75E-1,-8.75E-1,-7.3046875E-1,-8.4375E-1,-7.636719E-1,-8.203125E-1,-7.03125E-2,1.6633675E-1,-7.03125E-2,5.15625E-1,-7.03125E-2,5.15625E-1,-4.6875E-1,-3.90625E-2,9.669113E-3,2.7629303E-2,5.7885167E-3,1.1580706E-2,3.317833E-4,6.261241E-3,1.5740262E-2,2.8159605E-2,2.1234464E-2,1.1200857E-2,1.11424446E-1,3.1894837E-2,5.0637674E-2,1.7361796E-2,3.1905018E-2,1.4898789E-2,-2.4286269E-3,4.826295E-3,-3.6145686E-3,8.0158707E-4,1.2671852E-2,9.438717E-3,1.1141776E-3,-4.953551E-3,8.236587E-3,-6.820083E-4,-5.4290295E-3,7.0270296E-4,1.0095107E-2,1.6273736E-3,1.8894957E-2,9.914947E-3,4.329872E-3,1.5432346E-2,-9.685886E-3,-6.84036E-3,-1.5903234E-3,3.11898E-3,-1.2366688E-2,-5.0637005E-3,-1.586097E-2,-6.84036E-3,-1.880617E-2,-2.2911781E-2,-6.84036E-3,2.7750134E-3,-1.301682E-2,-2.395528E-2,-7.064243E-2,2.7355015E-2,1.4214611E-1,2.1347534E-2,6.1707855E-3,2.916789E-2,-2.3817301E-3,-1.579175E-2,3.3033047E-2,1.1200857E-2,7.783706E-2,4.4031713E-2,2.4527596E-2,1.5963316E-4,2.0082736E-2,9.5243E-2,4.187095E-2,1.8949116E-2,4.492017E-2,1.0919225E-1,8.472941E-2,1.1735315E-1,-6.84036E-3,2.3400069E-3,-1.2927324E-2,-2.0981789E-2,1.7793046E-2,3.4826312E-2,-4.9982783E-3,-1.5634328E-2,1.5452623E-2,4.1001353E-2,3.9313484E-2,6.0310792E-2],"split_indices":[8,3,2,8,8,8,3,3,6,3,3,3,1,1,1,0,2,2,3,2,0,6,3,6,3,0,3,8,1,6,3,8,0,3,2,3,6,3,3,8,5,6,3,6,7,6,3,3,3,1,3,2,0,0,1,3,3,6,0,0,6,2,0,0,0,0,6,0,7,8,0,3,0,6,2,0,7,8,7,0,0,2,3,3,6,0,0,6,0,8,3,8,3,3,6,1,3,8,8,3,6,8,6,0,0,0,3,0,3,1,0,0,0,0,0,0,0,0,0,0,0,0,0,0,0,0,0,0,0,0,0,0,0,0,0,0,0,0,0,0,0,0,0,0,0,0,0,0,0,0,0,0,0,0,0,0,0,0,0,0,0,0,0,0,0,0,0,0,0,0,0,0,0,0,0,0,0,0,0,0,0,0,0,0,0,0,0,0,0,0,0,0,0],"split_type":[0,0,0,0,0,0,0,0,0,0,0,0,0,0,0,0,0,0,0,0,0,0,0,0,0,0,0,0,0,0,0,0,0,0,0,0,0,0,0,0,0,0,0,0,0,0,0,0,0,0,0,0,0,0,0,0,0,0,0,0,0,0,0,0,0,0,0,0,0,0,0,0,0,0,0,0,0,0,0,0,0,0,0,0,0,0,0,0,0,0,0,0,0,0,0,0,0,0,0,0,0,0,0,0,0,0,0,0,0,0,0,0,0,0,0,0,0,0,0,0,0,0,0,0,0,0,0,0,0,0,0,0,0,0,0,0,0,0,0,0,0,0,0,0,0,0,0,0,0,0,0,0,0,0,0,0,0,0,0,0,0,0,0,0,0,0,0,0,0,0,0,0,0,0,0,0,0,0,0,0,0,0,0,0,0,0,0,0,0,0,0,0,0],"sum_hessian":[5.937962E5,9.067112E4,5.0312506E5,7.798043E4,1.2690685E4,3.062441E5,1.9688097E5,6.816637E4,9.814064E3,4.967975E3,7.722709E3,2.5458408E4,2.807857E5,1.21809375E5,7.50716E4,5.8741438E4,9.424927E3,2.0186084E3,7.795456E3,4.778072E3,1.8990314E2,5.4025986E3,2.3201104E3,1.5653297E4,9.80511E3,2.6927612E5,1.15095625E4,9.4483875E4,2.7325498E4,6.466714E4,1.040446E4,8.414169E3,1.01075793E3,1.5641255E3,4.5448294E2,5.909229E3,1.8862269E3,3.7439185E3,1.0341534E3,1.9350122E3,3.4675867E3,1.7815494E3,5.385608E2,8.179986E3,7.4733115E3,7.3206196E3,2.4844912E3,1.997643E5,6.9511836E4,6.467816E3,5.041746E3,1.0819865E4,8.366401E4,2.1101857E4,6.2236396E3,5.9285547E4,5.381592E3,1.0159288E4,2.4517212E2,5.61178E3,2.8023892E3,8.0948346E2,7.54642E2,1.2961823E2,3.2486472E2,2.7602383E3,3.148991E3,8.508321E2,1.0353948E3,3.1876152E3,5.563032E2,8.0476733E2,2.2938608E2,7.1976135E2,1.2152509E3,2.5857825E2,3.2090083E3,1.1481671E3,6.3338245E2,3.6587772E2,1.7268307E2,1.6205706E3,6.559415E3,5.7665425E3,1.7067689E3,2.2576802E3,5.0629395E3,1.9378717E3,5.466195E2,1.5673886E5,4.302544E4,5.6779336E4,1.2732499E4,3.5249355E3,2.9428801E3,3.8728728E3,1.1688735E3,3.5738306E3,7.2460347E3,5.8464133E4,2.5199877E4,1.1112899E4,9.988959E3,3.2383257E3,2.985314E3,3.74582E4,2.182735E4,5.008403E3,3.731886E2,6.238153E3,3.921135E3,5.855731E2,2.2168162E3,5.7851245E2,2.3097101E2,6.072602E2,1.473818E2,1.5739606E3,1.5750303E3,7.638038E2,2.7159106E2,2.5251416E3,6.624737E2,3.4482974E2,2.1147351E2,4.929397E2,3.1182767E2,3.3386465E2,3.858967E2,1.0325463E3,1.8270456E2,2.5977239E3,6.112845E2,4.683649E2,6.798022E2,4.281716E2,2.0521083E2,1.2019587E3,4.1861188E2,2.5759958E3,3.9834192E3,4.515671E3,1.2508717E3,7.381533E2,9.686156E2,8.251719E2,1.4325083E3,1.3044569E3,3.7584824E3,1.1601606E3,7.7771106E2,1.3409316E5,2.2645701E4,3.662793E4,6.3975127E3,4.3281348E4,1.3497991E4,1.0960683E4,1.7718162E3,1.25775185E2,3.3991604E3,2.4641191E3,4.7876108E2,2.8800117E3,9.92861E2,1.0187435E3,1.5012993E2,1.5219181E3,2.0519124E3,3.1997205E3,4.0463142E3,1.3811127E4,4.4653004E4,2.266393E4,2.5359475E3,3.1625186E3,7.9503813E3,8.244042E3,1.7449167E3,1.6006399E3,1.6376857E3,2.6054049E4,1.1404147E4,1.891711E4,2.9102412E3,2.7584924E3,2.2499106E3,2.1407913E2,1.5910948E2,4.880343E3,1.35781E3,1.7040142E3,2.2171208E3],"tree_param":{"num_deleted":"0","num_feature":"9","num_nodes":"193","size_leaf_vector":"1"}},{"base_weights":[-2.2415003E-2,9.333303E-1,-7.59744E-2,9.6783435E-1,4.9141786E-1,-1.7091188E-1,4.0399477E-2,9.848159E-1,8.316224E-1,9.2946655E-1,2.2802068E-2,-5.236931E-2,-2.455265E-1,1.7328136E-1,-4.4183027E-2,9.88142E-1,2.0240608E-1,7.223417E-1,6.3277125E-1,6.853857E-1,4.1125795E-1,1.613304E-1,-8.264891E-2,-3.9604113E-1,6.274363E-2,-3.2600752E-1,-7.47907E-2,7.621307E-2,2.578785E-1,-3.4786876E-2,-8.866124E-1,6.950113E-1,8.492377E-1,5.6287116E-1,8.3283705E-1,2.4029563E-1,5.8130216E-2,4.706118E-2,-1.1595457E-1,-6.77957E-1,1.0451757E-1,-1.18600406E-1,2.2741024E-1,-4.8949027E-1,-2.7671722E-1,-3.0845797E-1,-9.70118E-3,4.117315E-2,3.657649E-1,4.433436E-1,1.9777042E-1,-6.511015E-2,2.1930557E-1,-7.521762E-1,-6.9924295E-1,6.825379E-1,1.2493854E-1,4.711162E-1,6.0419375E-1,6.437637E-1,6.861144E-1,-5.0271887E-2,-7.7482325E-1,8.682088E-1,-7.478502E-3,-4.538925E-2,-2.6002085E-1,3.2186562E-1,5.5008173E-2,-6.138229E-1,-4.1900346E-1,-3.4606594E-1,-1.8899995E-1,-4.7520155E-1,-2.5128812E-1,7.72392E-2,-8.9364335E-2,-1.6796605E-1,8.4327206E-2,7.279929E-1,1.929774E-1,3.4086728E-1,5.956711E-1,1.8254335E-1,6.8750274E-1,-2.1680869E-1,-1.9553158E-2,2.7090058E-1,-9.212377E-2,-3.731072E-1,-5.800887E-1,4.1391352E-1,1.5405738E-1,3.484812E-1,5.9613967E-1,-2.399369E-1,6.047264E-2,-4.5090672E-1,-6.13658E-1,6.504871E-1,4.9133086E-1,-1.8875667E-1,1.5981428E-1,1.9080818E-2,-1.1999912E-1,-1.7457882E-1,-6.9661605E-1,2.61161E-1,8.736295E-2,5.0561063E-2,-4.6980634E-1,-4.3887597E-1,-2.7444884E-1,-9.436936E-2,-3.0944338E-1,-3.390533E-1,-2.1251759E-1,-1.3990721E-1,2.1200754E-1,-3.484414E-1,-1.0700952E-1,-1.6109963E-1,-6.23981E-1,-3.66933E-2,1.147856E-1,-5.3163752E-2,-5.754987E-1,2.4941416E-1,-2.919114E-1,2.5279042E-1,3.6184231E-3,1.6452947E-1,5.8467937E-1,1.8608359E-1,-2.3263739E-1,5.282691E-1,2.1445398E-1,2.978644E-1,4.6492228E-1,8.31352E-2,1.7410578E-1,3.920956E-1,5.2902615E-1,-3.090739E-1,-9.8635435E-2,3.57765E-1,-2.0957729E-2,1.2782371E-1,2.879347E-1,6.723045E-3,-1.7112993E-1],"categories":[],"categories_nodes":[],"categories_segments":[],"categories_sizes":[],"default_left":[0,0,0,0,0,0,0,0,0,0,0,0,0,0,0,0,0,0,0,0,0,0,0,0,0,0,0,0,0,0,0,0,0,0,0,0,0,0,0,0,0,0,0,0,0,0,0,0,0,0,0,0,0,0,0,0,0,0,0,0,0,0,0,0,0,0,0,0,0,0,0,0,0,0,0,0,0,0,0,0,0,0,0,0,0,0,0,0,0,0,0,0,0,0,0,0,0,0,0,0,0,0,0,0,0,0,0,0,0,0,0,0,0,0,0,0,0,0,0,0,0,0,0,0,0,0,0,0,0,0,0,0,0,0,0,0,0,0,0,0,0,0,0,0,0,0,0,0,0,0,0],"id":1,"left_children":[1,3,5,7,9,11,13,15,17,19,21,23,25,27,29,31,-1,33,-1,-1,-1,35,37,39,41,43,45,47,49,51,53,-1,55,57,59,-1,-1,-1,-1,61,63,65,67,69,71,73,75,77,79,81,83,85,87,89,-1,-1,-1,91,-1,-1,93,95,97,99,101,103,105,107,109,111,113,115,117,119,121,123,125,127,129,131,133,135,137,139,141,143,145,147,149,-1,-1,-1,-1,-1,-1,-1,-1,-1,-1,-1,-1,-1,-1,-1,-1,-1,-1,-1,-1,-1,-1,-1,-1,-1,-1,-1,-1,-1,-1,-1,-1,-1,-1,-1,-1,-1,-1,-1,-1,-1,-1,-1,-1,-1,-1,-1,-1,-1,-1,-1,-1,-1,-1,-1,-1,-1,-1,-1,-1,-1,-1],"loss_changes":[3.039604E4,4.7998633E2,6.212301E3,6.678516E1,4.6885876E2,2.7389727E3,2.839373E3,5.983203E1,2.500879E1,1.947052E1,1.6149136E1,4.73238E3,2.611372E3,8.0684595E2,1.2218765E3,1.6154297E1,0E0,2.2401794E1,0E0,0E0,0E0,6.776803E0,7.8214126E0,4.235535E3,2.6758489E3,1.0406533E3,9.260107E2,4.6423776E2,5.851946E2,1.1762882E3,2.495642E1,0E0,7.229004E1,1.431427E1,9.10968E0,0E0,0E0,0E0,0E0,1.1673838E3,9.249841E2,4.4151868E2,7.6475854E2,2.6195215E2,6.036304E2,1.263302E2,3.2982697E2,3.6841714E2,3.0901288E2,2.0038086E2,2.9557068E2,9.4257477E2,2.6156396E2,1.2623718E1,0E0,0E0,0E0,1.2284294E1,0E0,0E0,8.557266E0,1.0268049E2,2.2076855E2,1.3392822E1,5.831439E2,2.5729962E2,1.1334412E2,3.062063E2,2.0795023E2,3.1296875E1,1.250874E2,3.2537012E2,2.3429553E2,2.455658E1,1.3352942E2,2.561042E2,2.4424794E2,9.11837E2,7.414254E2,8.4133606E1,1.2813261E2,1.0948425E2,5.993811E1,1.6229578E2,9.967468E0,5.3722314E2,5.7812506E2,1.7307117E2,3.5866272E1,0E0,0E0,0E0,0E0,0E0,0E0,0E0,0E0,0E0,0E0,0E0,0E0,0E0,0E0,0E0,0E0,0E0,0E0,0E0,0E0,0E0,0E0,0E0,0E0,0E0,0E0,0E0,0E0,0E0,0E0,0E0,0E0,0E0,0E0,0E0,0E0,0E0,0E0,0E0,0E0,0E0,0E0,0E0,0E0,0E0,0E0,0E0,0E0,0E0,0E0,0E0,0E0,0E0,0E0,0E0,0E0,0E0,0E0,0E0,0E0,0E0,0E0],"parents":[2147483647,0,0,1,1,2,2,3,3,4,4,5,5,6,6,7,7,8,8,9,9,10,10,11,11,12,12,13,13,14,14,15,15,17,17,21,21,22,22,23,23,24,24,25,25,26,26,27,27,28,28,29,29,30,30,32,32,33,33,34,34,39,39,40,40,41,41,42,42,43,43,44,44,45,45,46,46,47,47,48,48,49,49,50,50,51,51,52,52,53,53,57,57,60,60,61,61,62,62,63,63,64,64,65,65,66,66,67,67,68,68,69,69,70,70,71,71,72,72,73,73,74,74,75,75,76,76,77,77,78,78,79,79,80,80,81,81,82,82,83,83,84,84,85,85,86,86,87,87,88,88],"right_children":[2,4,6,8,10,12,14,16,18,20,22,24,26,28,30,32,-1,34,-1,-1,-1,36,38,40,42,44,46,48,50,52,54,-1,56,58,60,-1,-1,-1,-1,62,64,66,68,70,72,74,76,78,80,82,84,86,88,90,-1,-1,-1,92,-1,-1,94,96,98,100,102,104,106,108,110,112,114,116,118,120,122,124,126,128,130,132,134,136,138,140,142,144,146,148,150,-1,-1,-1,-1,-1,-1,-1,-1,-1,-1,-1,-1,-1,-1,-1,-1,-1,-1,-1,-1,-1,-1,-1,-1,-1,-1,-1,-1,-1,-1,-1,-1,-1,-1,-1,-1,-1,-1,-1,-1,-1,-1,-1,-1,-1,-1,-1,-1,-1,-1,-1,-1,-1,-1,-1,-1,-1,-1,-1,-1,-1,-1],"split_conditions":[-8.984375E-1,7.5E-1,-1.25E-1,-9.0234375E-1,-7.65625E-1,-8.730469E-1,-5.15625E-1,1.09375E-1,-8.769531E-1,-8.5546875E-1,-9.277344E-1,-8.808594E-1,-8.5546875E-1,5E-1,5.546875E-1,6.25E-1,1.5151215E-2,-6.25E-1,7.245084E-2,3.645665E-1,1.589464E-1,-2.34375E-1,-2.421875E-1,-5.7421875E-1,-8.769531E-1,9.6875E-1,9.6875E-1,-8.125E-1,-8.125E-1,-8.59375E-1,5.7421875E-1,3.880314E-1,-6.9921875E-1,-6.3671875E-1,-8.7109375E-1,2.8238462E-2,2.8871654E-3,5.338156E-3,-6.833434E-3,-8.9453125E-1,-8.90625E-1,-8.75E-1,-1.2890625E-1,-6.484375E-1,-3.046875E-1,-6.796875E-1,-2.734375E-1,-8.808594E-1,-8.125E-1,-1.484375E-1,-7.265625E-1,-6.796875E-1,2.8125E-1,1.25E-1,-1.7951638E-2,3.7498322E-1,1.770109E-2,-8.9453125E-1,7.953636E-2,8.199078E-2,-6.09375E-1,-8.769531E-1,-8.7109375E-1,-8.925781E-1,-8.828125E-1,-1.5625E-1,5.2734375E-1,-5E-1,5.390625E-1,5.1171875E-1,-5.703125E-1,-6.484375E-1,3.046875E-1,-7.1875E-1,5.546875E-1,-8.3984375E-1,5.546875E-1,-8.90625E-1,-8.730469E-1,-4.6875E-1,-3.0078125E-1,-8.925781E-1,-8.808594E-1,7.5E-1,-6.640625E-1,9.6875E-1,9.0625E-1,-2.5E-1,4.0625E-1,-6.3961744E-3,-7.824737E-3,1.6962336E-2,8.156228E-3,3.664987E-2,9.00931E-2,-1.760012E-2,3.8373708E-3,-6.51683E-2,-1.01968534E-1,5.516256E-2,2.5784135E-2,-1.4398777E-2,4.867518E-3,5.05352E-4,-2.790618E-3,-5.3752065E-3,-1.3160848E-2,7.228428E-3,2.8039694E-3,1.6146064E-3,-7.08999E-3,-1.5182131E-2,-6.281227E-3,-4.8020957E-3,-1.2097114E-2,-2.18871E-2,-6.8841693E-3,-6.5369485E-3,1.3165271E-2,-1.2646234E-2,-9.322226E-3,-7.363194E-3,-1.599757E-2,-2.6004433E-3,9.00054E-3,-2.0521164E-3,-1.3051492E-2,2.8820919E-2,-4.955387E-2,1.5896643E-2,3.3954383E-4,4.1055847E-2,2.3569824E-1,2.0100009E-2,-2.593726E-2,6.946237E-2,2.8503323E-2,5.9010945E-2,9.452728E-2,7.7537657E-3,1.6027736E-2,8.485115E-2,1.2574019E-1,-1.1354732E-2,-3.5939573E-3,5.0104786E-2,-1.2118935E-3,1.06426E-2,2.9781973E-2,5.9939624E-4,-6.3325046E-3],"split_indices":[8,2,2,8,3,8,3,3,6,3,8,8,8,2,3,2,0,2,0,0,0,3,0,3,6,5,5,1,3,6,3,0,3,3,3,0,0,0,0,8,8,8,3,0,0,0,3,8,3,0,6,0,3,2,0,0,0,3,0,0,3,6,3,8,8,3,3,7,3,3,0,3,0,1,3,8,3,8,8,1,8,8,8,2,6,5,5,7,3,0,0,0,0,0,0,0,0,0,0,0,0,0,0,0,0,0,0,0,0,0,0,0,0,0,0,0,0,0,0,0,0,0,0,0,0,0,0,0,0,0,0,0,0,0,0,0,0,0,0,0,0,0,0,0,0,0,0,0,0,0,0],"split_type":[0,0,0,0,0,0,0,0,0,0,0,0,0,0,0,0,0,0,0,0,0,0,0,0,0,0,0,0,0,0,0,0,0,0,0,0,0,0,0,0,0,0,0,0,0,0,0,0,0,0,0,0,0,0,0,0,0,0,0,0,0,0,0,0,0,0,0,0,0,0,0,0,0,0,0,0,0,0,0,0,0,0,0,0,0,0,0,0,0,0,0,0,0,0,0,0,0,0,0,0,0,0,0,0,0,0,0,0,0,0,0,0,0,0,0,0,0,0,0,0,0,0,0,0,0,0,0,0,0,0,0,0,0,0,0,0,0,0,0,0,0,0,0,0,0,0,0,0,0,0,0],"sum_hessian":[5.937962E5,3.15093E4,5.622869E5,2.9226164E4,2.283138E3,3.0966366E5,2.5262322E5,2.5980893E4,3.245271E3,1.1795472E3,1.1035906E3,1.19620516E5,1.9004316E5,9.8257086E4,1.5436614E5,2.5856846E4,1.2404678E2,1.296938E3,1.9483329E3,1.0283547E3,1.511926E2,4.7675693E2,6.268337E2,3.0013178E4,8.9607336E4,1.2915941E5,6.0883746E4,4.5756805E4,5.250028E4,1.5266442E5,1.7017218E3,2.4999184E4,8.5766156E2,5.333228E2,7.6361523E2,1.4240514E2,3.343518E2,2.2347707E2,4.0335657E2,1.9199576E4,1.0813603E4,4.2644305E4,4.6963035E4,2.991857E4,9.9240836E4,1.3263802E4,4.7619945E4,4.0818344E4,4.938462E3,1.2848748E4,3.965153E4,1.3638861E5,1.6275809E4,7.780515E2,9.236702E2,7.218139E2,1.358477E2,4.1046198E2,1.2286084E2,4.764189E2,2.871963E2,2.5670193E3,1.6632557E4,1.3821427E3,9.43146E3,2.8099139E4,1.4545165E4,3.03397E4,1.6623334E4,1.0821923E4,1.9096648E4,5.542177E4,4.381907E4,3.3846636E3,9.879138E3,2.2769969E4,2.4849975E4,6.9813687E3,3.3836973E4,1.5938774E3,3.3445845E3,7.683208E3,5.1655405E3,3.845717E4,1.1943612E3,3.1498652E4,1.0488995E5,1.3962713E4,2.3130957E3,2.0341542E2,5.746361E2,2.7665237E2,1.338096E2,1.3623116E2,1.5096513E2,8.169661E2,1.7500532E3,7.2879316E3,9.344624E3,1.0076164E3,3.7452628E2,4.465752E3,4.9657075E3,1.7825445E4,1.0273693E4,1.4339308E4,2.0585751E2,2.4079816E4,6.259882E3,1.6239102E4,3.8423282E2,1.0214694E4,6.0722894E2,1.4336875E3,1.766296E4,1.3018466E4,4.24033E4,4.2872426E4,9.4664526E2,3.1626482E3,2.2201552E2,9.564538E3,3.145997E2,9.127177E3,1.3642793E4,2.4404271E4,4.457044E2,2.2482273E3,4.733141E3,7.5238403E3,2.6313133E4,2.8540958E2,1.3084679E3,2.9376545E3,4.069301E2,5.8973987E2,7.093468E3,1.4847931E3,3.6807476E3,1.9585174E4,1.8871998E4,4.1991757E2,7.7444366E2,7.951435E3,2.3547219E4,2.0126965E3,1.0287726E5,8.574182E3,5.3885312E3,1.3875284E3,9.2556726E2],"tree_param":{"num_deleted":"0","num_feature":"9","num_nodes":"151","size_leaf_vector":"1"}},{"base_weights":[-1.5616993E-2,9.3806857E-1,-3.797888E-2,9.697716E-1,1.5026213E-1,-3.8979384E-1,-2.9046914E-2,9.824661E-1,6.539621E-1,2.9619405E-1,8.50788E-3,3.6731917E-1,-5.168537E-1,-4.0058896E-2,1.9184487E-1,6.966211E-1,9.13167E-1,6.3587284E-1,8.992243E-2,8.873932E-2,5.6253296E-1,-6.894545E-1,-2.1184665E-1,-9.471233E-2,-5.38728E-4,1.403417E-1,5.9386617E-1,6.5001965E-1,4.768474E-1,-6.5666646E-2,5.689147E-1,6.790301E-1,2.681503E-1,-5.003299E-1,-7.804526E-1,5.3773027E-2,-3.2055807E-1,-1.7861748E-1,-6.1486427E-2,2.4074513E-1,-1.3366165E-2,5.240924E-2,1.9987088E-1,3.0908728E-1,6.4829284E-1,-1.9179496E-1,6.7830205E-2,5.597248E-1,5.619254E-1,4.22711E-1,5.1288697E-4,-5.8192897E-1,-2.6297662E-1,-8.2566833E-1,-6.903005E-1,-1.3157949E-1,1.0911582E-1,-3.7211904E-1,-1.007328E-1,-3.5990357E-1,-1.2035051E-1,-5.604118E-2,-7.6664E-1,1.9734617E-1,7.7115864E-1,-1.1731029E-1,1.2586297E-2,2.97471E-1,4.2437218E-2,4.379348E-1,1.826512E-1,9.268228E-2,3.761559E-1,5.718754E-1,7.642443E-1,-7.104803E-2,1.0607534E-1,4.647624E-1,2.683995E-1,-4.444004E-1,-1.5409257E-1,-3.0172116E-1,-8.893252E-2,-5.290593E-1,-6.0612315E-1,-5.013541E-1,-2.513444E-1,9.977942E-3,-2.3302917E-1,1.6095656E-1,-9.788878E-3,-1.8192542E-1,-3.126379E-1,4.058502E-2,-1.5204106E-1,6.4382725E-3,-4.5991445E-1,2.516621E-2,-2.0722407E-1,2.770357E-1,-4.3245085E-2,-4.439836E-1,-5.614609E-1,9.0452336E-2,2.0566477E-1,5.800311E-1,1.8421026E-1,1.6813894E-1,-1.0019034E-1,-1.6372217E-2,3.932243E-2,-1.9588424E-1,5.1327344E-2,1.5928483E-2,1.4777806E-1,1.6868055E-1,-3.3090513E-2,5.535294E-1,3.8633052E-1,5.571139E-1,3.9971238E-1],"categories":[],"categories_nodes":[],"categories_segments":[],"categories_sizes":[],"default_left":[0,0,0,0,0,0,0,0,0,0,0,0,0,0,0,0,0,0,0,0,0,0,0,0,0,0,0,0,0,0,0,0,0,0,0,0,0,0,0,0,0,0,0,0,0,0,0,0,0,0,0,0,0,0,0,0,0,0,0,0,0,0,0,0,0,0,0,0,0,0,0,0,0,0,0,0,0,0,0,0,0,0,0,0,0,0,0,0,0,0,0,0,0,0,0,0,0,0,0,0,0,0,0,0,0,0,0,0,0,0,0,0,0,0,0,0,0,0,0,0,0],"id":2,"left_children":[1,3,5,7,9,11,13,15,17,-1,-1,19,21,23,25,-1,27,-1,-1,29,31,33,35,37,39,41,43,-1,-1,45,-1,47,49,51,53,55,57,59,61,63,65,67,69,71,73,-1,75,77,-1,-1,-1,79,81,83,85,87,89,91,93,95,97,99,101,103,105,107,109,-1,111,-1,113,115,-1,117,119,-1,-1,-1,-1,-1,-1,-1,-1,-1,-1,-1,-1,-1,-1,-1,-1,-1,-1,-1,-1,-1,-1,-1,-1,-1,-1,-1,-1,-1,-1,-1,-1,-1,-1,-1,-1,-1,-1,-1,-1,-1,-1,-1,-1,-1,-1],"loss_changes":[1.2663479E4,3.3963477E2,1.8231902E3,5.1788086E1,1.9873096E1,1.382114E3,1.3763636E3,1.015918E1,6.785252E1,0E0,0E0,1.1224747E2,6.474531E2,1.1641107E3,5.5624243E2,0E0,6.383423E0,0E0,0E0,9.529713E1,4.1450195E1,1.3480054E2,1.2842793E2,6.3052966E2,9.680935E2,1.2466974E2,4.7088013E1,0E0,0E0,1.9573948E1,0E0,1.2379181E1,3.1049019E1,4.932422E1,2.1041504E1,1.32709675E1,3.5730072E1,6.7765405E2,6.2207025E2,3.6330994E2,8.0118475E2,3.5709038E1,1.0401135E2,2.4227955E1,2.2250854E1,0E0,6.100776E0,7.9356537E0,0E0,0E0,0E0,3.6248596E1,1.4916515E1,9.253906E0,1.4999329E1,8.741936E0,1.4812931E1,2.1253815E1,1.1120518E1,1.7113153E3,1.333293E3,4.1680396E2,5.3167114E0,9.588641E1,3.4628357E1,5.477526E2,3.7267877E2,0E0,9.326347E1,0E0,6.2122223E1,5.2723384E0,0E0,6.328644E0,5.744507E0,0E0,0E0,0E0,0E0,0E0,0E0,0E0,0E0,0E0,0E0,0E0,0E0,0E0,0E0,0E0,0E0,0E0,0E0,0E0,0E0,0E0,0E0,0E0,0E0,0E0,0E0,0E0,0E0,0E0,0E0,0E0,0E0,0E0,0E0,0E0,0E0,0E0,0E0,0E0,0E0,0E0,0E0,0E0,0E0,0E0,0E0],"parents":[2147483647,0,0,1,1,2,2,3,3,4,4,5,5,6,6,7,7,8,8,11,11,12,12,13,13,14,14,16,16,19,19,20,20,21,21,22,22,23,23,24,24,25,25,26,26,29,29,31,31,32,32,33,33,34,34,35,35,36,36,37,37,38,38,39,39,40,40,41,41,42,42,43,43,44,44,46,46,47,47,51,51,52,52,53,53,54,54,55,55,56,56,57,57,58,58,59,59,60,60,61,61,62,62,63,63,64,64,65,65,66,66,68,68,70,70,71,71,73,73,74,74],"right_children":[2,4,6,8,10,12,14,16,18,-1,-1,20,22,24,26,-1,28,-1,-1,30,32,34,36,38,40,42,44,-1,-1,46,-1,48,50,52,54,56,58,60,62,64,66,68,70,72,74,-1,76,78,-1,-1,-1,80,82,84,86,88,90,92,94,96,98,100,102,104,106,108,110,-1,112,-1,114,116,-1,118,120,-1,-1,-1,-1,-1,-1,-1,-1,-1,-1,-1,-1,-1,-1,-1,-1,-1,-1,-1,-1,-1,-1,-1,-1,-1,-1,-1,-1,-1,-1,-1,-1,-1,-1,-1,-1,-1,-1,-1,-1,-1,-1,-1,-1,-1,-1],"split_conditions":[-9.238281E-1,-2.8125E-1,-9.0234375E-1,7.5E-1,-1.0546875E-1,-9.1796875E-1,2.578125E-1,-9.277344E-1,-8.2421875E-1,7.384356E-2,1.7323493E-4,-5E-1,1.25E-1,-5E-1,3.203125E-1,5.590904E-1,-7.8125E-1,6.010366E-1,1.3040352E-2,-5.78125E-1,-8.359375E-1,-9.121094E-1,-9.121094E-1,-6.3671875E-1,-8.7109375E-1,-3.75E-1,-8.808594E-1,9.242376E-2,9.752793E-2,-4.296875E-1,5.7495557E-2,3.75E-1,3.75E-1,-5E-1,-6.25E-1,2.5E-1,7.5E-1,-8.808594E-1,5.7421875E-1,-4.6875E-1,9.6875E-1,-8.90625E-1,-8.9453125E-1,-5.7421875E-1,-2.2265625E-1,-1.6951239E-2,-8.769531E-1,-9.609375E-1,1.154116E-1,7.3209785E-2,1.3935566E-5,-6.40625E-1,-5.546875E-1,-9.082031E-1,1.640625E-1,-9.609375E-1,-9.160156E-1,-9.082031E-1,-9.082031E-1,-8.886719E-1,-8.691406E-1,-8.886719E-1,-8.730469E-1,-8.808594E-1,-7.109375E-1,8.75E-1,-3.046875E-1,2.6782906E-2,-8.808594E-1,1.0742986E-1,9.6875E-1,-8.3984375E-1,2.9059744E-2,-8.359375E-1,-7.8515625E-1,-8.444285E-3,1.0027933E-2,5.8152866E-2,3.797141E-2,-6.799296E-2,-1.426326E-2,-3.5666537E-2,-1.6951239E-2,-1.3215956E-1,-1.8538876E-1,-1.3420601E-1,-8.038877E-2,1.2778997E-3,-3.9555393E-2,2.3152899E-2,-3.0504703E-3,-4.597727E-2,-1.0521335E-1,7.981157E-3,-2.2050822E-2,5.148649E-4,-4.231305E-2,1.0227204E-3,-1.9694418E-2,1.7872155E-2,-1.3619304E-3,-5.668145E-3,-1.1530638E-2,1.2776827E-2,3.0359255E-2,2.9321614E-1,2.7864205E-2,2.2088623E-2,-3.956324E-3,-7.975817E-4,2.2903562E-3,-1.4719379E-2,2.4158596E-3,1.0339438E-3,1.0611057E-2,2.2766208E-2,-4.187095E-3,1.4623223E-1,3.8394403E-2,3.382212E-2,3.99279E-2],"split_indices":[8,3,8,2,3,8,0,8,3,0,0,2,2,2,0,0,1,0,0,3,3,8,8,3,3,2,8,0,0,0,0,2,2,2,2,2,2,8,3,1,5,8,3,3,3,0,6,3,0,0,0,3,0,8,0,3,8,8,8,8,8,8,8,8,8,5,0,0,8,0,5,3,0,3,6,0,0,0,0,0,0,0,0,0,0,0,0,0,0,0,0,0,0,0,0,0,0,0,0,0,0,0,0,0,0,0,0,0,0,0,0,0,0,0,0,0,0,0,0,0,0],"split_type":[0,0,0,0,0,0,0,0,0,0,0,0,0,0,0,0,0,0,0,0,0,0,0,0,0,0,0,0,0,0,0,0,0,0,0,0,0,0,0,0,0,0,0,0,0,0,0,0,0,0,0,0,0,0,0,0,0,0,0,0,0,0,0,0,0,0,0,0,0,0,0,0,0,0,0,0,0,0,0,0,0,0,0,0,0,0,0,0,0,0,0,0,0,0,0,0,0,0,0,0,0,0,0,0,0,0,0,0,0,0,0,0,0,0,0,0,0,0,0,0,0],"sum_hessian":[5.937962E5,1.3603323E4,5.801929E5,1.3076851E4,5.2647235E2,1.4364318E4,5.6582856E5,1.2569487E4,5.0736282E2,1.7622508E2,3.5024725E2,2.0639492E3,1.2300369E4,5.389609E5,2.6867672E4,1.0610537E4,1.9589507E3,3.413605E2,1.660023E2,8.509935E2,1.2129556E3,7.854382E3,4.4459873E3,2.2617558E5,3.1278528E5,2.3817719E4,3.049952E3,1.8339323E3,1.2501845E2,7.021549E2,1.4883864E2,8.68109E2,3.4484662E2,2.5536138E3,5.300768E3,1.2913287E3,3.1546584E3,6.4156707E4,1.6201888E5,1.578838E4,2.969969E5,9.615798E3,1.4201921E4,4.9044678E2,2.5595051E3,2.738112E2,4.283437E2,4.4475238E2,4.2335663E2,1.5233871E2,1.925079E2,1.8992307E3,6.543831E2,3.5247664E3,1.7760018E3,2.9659695E2,9.9473175E2,2.55474E3,5.999184E2,1.5603705E4,4.8553E4,1.6077842E5,1.2404626E3,1.459553E4,1.192849E3,5.9337273E4,2.3765964E5,2.4959113E2,9.366207E3,5.507011E2,1.365122E4,2.524928E2,2.3795398E2,1.5463317E3,1.0131734E3,1.4163008E2,2.867136E2,2.7777438E2,1.6697798E2,1.6561857E3,2.4304509E2,2.916449E2,3.6273825E2,1.2950049E3,2.2297615E3,1.6460356E3,1.2996616E2,1.7253996E2,1.2405701E2,5.0157236E2,4.9315936E2,1.02113776E3,1.5336023E3,2.5412524E2,3.4579312E2,6.9593037E3,8.644401E3,2.5694205E4,2.2858795E4,2.0152767E3,1.5876314E5,2.6599417E2,9.7446844E2,8.555362E3,6.040168E3,1.0710746E3,1.2177443E2,3.996063E3,5.534121E4,1.3020085E5,1.0745879E5,8.1846985E2,8.547737E3,2.062945E3,1.1588275E4,1.2224513E2,1.3024767E2,1.26087265E2,1.4202444E3,8.6796234E2,1.4521103E2],"tree_param":{"num_deleted":"0","num_feature":"9","num_nodes":"121","size_leaf_vector":"1"}},{"base_weights":[-8.209249E-3,9.274937E-1,-1.6330872E-2,6.925312E-1,-5.9746373E-2,-3.441586E-2,6.0717136E-2,-1.5344569E-1,3.3966683E-2,-6.23699E-2,2.6022295E-2,5.544398E-2,2.8455028E-1,8.7393093E-1,-6.426067E-2,1.278791E-1,-4.5897804E-2,5.3930557E-1,5.3063918E-2,3.6314398E-1,2.446348E-1,7.9313785E-1,6.9728285E-1,-1.7294136E-1,-4.7923386E-2,-7.893006E-3,1.7433898E-1,-6.810546E-2,1.0580573E-1,8.817485E-1,-9.248392E-2,-6.105139E-2,6.608623E-2,3.1855717E-1,4.0253022E-1,1.5607695E-1,3.2764506E-1,6.1889416E-1,4.146993E-1,-2.3338288E-1,-1.3665652E-2,4.5851767E-2,-6.6999316E-2,-9.49404E-2,3.1632462E-1,2.562134E-1,5.2755147E-2,-2.2884087E-1,-5.815377E-2,-8.045933E-2,1.6276477E-1,6.964216E-1,5.164507E-1,-8.7283015E-2,5.8065647E-1,1.7513235E-1,4.434757E-2,9.90855E-2,3.6859053E-1,1.6311766E-1,6.7425475E-2,2.9859382E-1,1.1029635E-1,-1.0954562E-1,-3.780114E-1,-7.683802E-2,1.2710515E-1,-8.1052855E-3,1.06615186E-1,-1.3993034E-1,-4.1598424E-2,-2.4029419E-2,-2.590181E-1,1.6819187E-1,3.3919245E-1,2.275571E-1,6.448216E-2,-3.745336E-2,8.330444E-2,-2.4850196E-1,-1.1143702E-1,-6.0143616E-2,-1.7964099E-2,-2.2518335E-1,3.6893547E-2,2.4315092E-1,6.6147454E-2,-1.02446884E-1,1.3539815E-1,4.2359646E-2,2.030087E-1,3.5402667E-2,-1.5305987E-1,3.0300656E-1,1.247295E-1,-9.9081695E-2,1.18606195E-1],"categories":[],"categories_nodes":[],"categories_segments":[],"categories_sizes":[],"default_left":[0,0,0,0,0,0,0,0,0,0,0,0,0,0,0,0,0,0,0,0,0,0,0,0,0,0,0,0,0,0,0,0,0,0,0,0,0,0,0,0,0,0,0,0,0,0,0,0,0,0,0,0,0,0,0,0,0,0,0,0,0,0,0,0,0,0,0,0,0,0,0,0,0,0,0,0,0,0,0,0,0,0,0,0,0,0,0,0,0,0,0,0,0,0,0,0,0],"id":3,"left_children":[1,3,5,-1,7,9,11,-1,-1,13,15,17,19,21,23,25,27,29,31,33,35,37,-1,39,41,43,45,47,49,51,-1,53,55,57,-1,59,61,-1,-1,63,65,67,69,71,73,75,77,79,81,83,85,-1,-1,87,-1,89,91,-1,93,-1,95,-1,-1,-1,-1,-1,-1,-1,-1,-1,-1,-1,-1,-1,-1,-1,-1,-1,-1,-1,-1,-1,-1,-1,-1,-1,-1,-1,-1,-1,-1,-1,-1,-1,-1,-1,-1],"loss_changes":[4.512533E3,3.119912E2,8.2028796E2,0E0,5.2268243E0,8.05514E2,1.32074E2,0E0,0E0,5.771787E2,1.1045663E3,1.25885864E2,7.9908752E0,5.6963806E0,5.776504E2,3.936402E2,2.977554E2,1.23143326E2,1.6168985E2,7.9931183E0,1.2527679E1,6.7897644E0,0E0,4.0928357E2,5.0593817E2,4.4906607E2,4.628141E2,1.2330585E2,1.197519E2,5.0396423E0,0E0,2.604255E2,2.3149414E2,6.2996063E0,0E0,5.6448803E0,1.4776665E1,0E0,0E0,7.2654297E2,2.1948674E2,2.922957E2,2.3652588E2,2.0913892E2,4.2973328E1,3.1395496E2,1.3172916E2,3.9435074E1,6.549304E1,8.494057E1,1.0889003E2,0E0,0E0,1.795529E2,0E0,2.1371857E2,1.3338176E2,0E0,6.7584915E0,0E0,8.273619E0,0E0,0E0,0E0,0E0,0E0,0E0,0E0,0E0,0E0,0E0,0E0,0E0,0E0,0E0,0E0,0E0,0E0,0E0,0E0,0E0,0E0,0E0,0E0,0E0,0E0,0E0,0E0,0E0,0E0,0E0,0E0,0E0,0E0,0E0,0E0,0E0],"parents":[2147483647,0,0,1,1,2,2,4,4,5,5,6,6,9,9,10,10,11,11,12,12,13,13,14,14,15,15,16,16,17,17,18,18,19,19,20,20,21,21,23,23,24,24,25,25,26,26,27,27,28,28,29,29,31,31,32,32,33,33,35,35,36,36,39,39,40,40,41,41,42,42,43,43,44,44,45,45,46,46,47,47,48,48,49,49,50,50,53,53,55,55,56,56,58,58,60,60],"right_children":[2,4,6,-1,8,10,12,-1,-1,14,16,18,20,22,24,26,28,30,32,34,36,38,-1,40,42,44,46,48,50,52,-1,54,56,58,-1,60,62,-1,-1,64,66,68,70,72,74,76,78,80,82,84,86,-1,-1,88,-1,90,92,-1,94,-1,96,-1,-1,-1,-1,-1,-1,-1,-1,-1,-1,-1,-1,-1,-1,-1,-1,-1,-1,-1,-1,-1,-1,-1,-1,-1,-1,-1,-1,-1,-1,-1,-1,-1,-1,-1,-1],"split_conditions":[-9.453125E-1,-4.453125E-1,-9.0625E-1,5.942896E-1,-7.8125E-3,-8.75E-1,3.046875E-1,-1.5537488E-2,1.594162E-3,-9.921875E-1,-8.691406E-1,-9.921875E-1,-5.9375E-1,-7.5E-1,-8.808594E-1,-8.808594E-1,-8.496094E-1,-8.75E-1,-8.808594E-1,-8.3984375E-1,-2.2265625E-1,-2.265625E-1,1.5678963E-1,-5.7421875E-1,-8.75E-1,-5.7421875E-1,-5E-1,9.375E-1,-7.578125E-1,-8.4375E-1,-2.9147863E-2,-3.75E-1,-6.9921875E-1,-8.808594E-1,9.8637685E-2,-6.875E-1,1.171875E-1,1.0757089E-1,1.0757089E-1,-8.847656E-1,-8.769531E-1,-8.769531E-1,9.375E-1,-8.847656E-1,-8.828125E-1,-8.7109375E-1,-8.691406E-1,-6.171875E-1,-3.046875E-1,-2.5E-1,1.25E-1,1.0210214E-1,8.5695885E-2,-5.7421875E-1,7.132166E-1,-7.1875E-1,1.875E-1,2.0103931E-2,-7.265625E-1,1.7165363E-2,5E-1,1.9846499E-2,4.1862605E-3,-1.0977805E-2,-3.2488227E-2,-3.3326864E-3,7.362485E-3,-2.8522013E-4,2.8237044E-3,-6.080872E-3,-1.6320884E-3,-2.3949146E-3,-2.1311319E-2,1.3871228E-2,1.4906299E-2,6.2603652E-3,1.8617332E-3,-1.1109232E-3,3.2607554E-3,-9.7851455E-3,-6.103861E-3,-2.2644042E-3,-8.9504715E-4,-2.1125734E-2,6.258571E-3,1.8355893E-2,5.6849597E-3,-1.423881E-2,1.0626745E-2,3.919482E-3,3.8732443E-2,1.7447829E-3,-1.3064885E-2,3.8048934E-2,2.2920834E-2,-6.7701815E-3,8.822047E-3],"split_indices":[8,3,1,0,3,6,0,0,0,3,8,3,3,2,8,8,6,6,8,6,3,0,0,3,8,3,7,5,3,1,0,1,3,8,0,1,3,0,0,8,6,8,5,8,8,8,6,0,0,2,2,0,0,3,0,1,1,0,8,0,2,0,0,0,0,0,0,0,0,0,0,0,0,0,0,0,0,0,0,0,0,0,0,0,0,0,0,0,0,0,0,0,0,0,0,0,0],"split_type":[0,0,0,0,0,0,0,0,0,0,0,0,0,0,0,0,0,0,0,0,0,0,0,0,0,0,0,0,0,0,0,0,0,0,0,0,0,0,0,0,0,0,0,0,0,0,0,0,0,0,0,0,0,0,0,0,0,0,0,0,0,0,0,0,0,0,0,0,0,0,0,0,0,0,0,0,0,0,0,0,0,0,0,0,0,0,0,0,0,0,0,0,0,0,0,0,0],"sum_hessian":[5.937962E5,5.10865E3,5.8868756E5,4.8075244E3,3.0112567E2,4.7677722E5,1.1191033E5,1.2136019E2,1.7976549E2,3.2599634E5,1.5078086E5,1.093358E5,2.5745317E3,6.560621E2,3.2534028E5,6.240253E4,8.837833E4,5.3407404E2,1.0880172E5,8.644096E2,1.7101222E3,3.9943674E2,2.5662534E2,4.2514047E4,2.8282625E5,1.5909684E4,4.6492848E4,7.7093305E4,1.1285023E4,3.534784E2,1.8059564E2,1.1143847E4,9.7657875E4,7.1621124E2,1.4819835E2,8.288066E2,8.813156E2,2.7249136E2,1.26945366E2,3.0818613E4,1.1695434E4,4.780766E4,2.3501858E5,1.2542835E4,3.3668489E3,2.7782826E4,1.8710023E4,4.493543E3,7.2599766E4,2.6426682E3,8.642355E3,1.9461768E2,1.5886072E2,1.0825871E4,3.1797598E2,1.6231232E4,8.142664E4,1.5867714E2,5.575341E2,4.42818E2,3.859886E2,5.562776E2,3.2503802E2,2.4641262E4,6.177352E3,7.8379077E3,3.8575261E3,3.1054988E4,1.675267E4,1.2668541E4,2.2235005E5,1.027906E4,2.2637751E3,2.3203643E3,1.0464846E3,1.9569059E4,8.213766E3,7.185474E3,1.1524551E4,1.596817E3,2.8967258E3,3.9145496E4,3.345427E4,9.394363E2,1.7032318E3,2.332183E3,6.310172E3,8.944215E3,1.8816558E3,8.1256284E3,8.105604E3,7.954393E4,1.8827078E3,4.158728E2,1.416613E2,1.2648908E2,2.594995E2],"tree_param":{"num_deleted":"0","num_feature":"9","num_nodes":"97","size_leaf_vector":"1"}},{"base_weights":[-3.775868E-3,8.715566E-1,-7.156186E-3,6.830801E-1,-4.961334E-2,-5.696337E-2,9.273019E-3,-6.711786E-2,2.1724403E-1,9.0479344E-2,4.3332195E-4,1.4150518E-1,-7.886523E-2,2.623997E-1,-1.5448435E-1,-2.0063736E-2,2.9836783E-1,-6.534042E-2,1.3582436E-2,9.2733983E-4,2.1295252E-1,-2.5949013E-1,-7.172314E-2,8.474242E-2,3.3654955E-1,3.6639513E-3,-2.1736611E-1,-8.947928E-2,1.3667144E-1,1.4531338E-1,5.43507E-1,-1.0999759E-1,-2.4445368E-2,-3.9579622E-2,2.5394987E-2,-1.1429055E-1,7.8776844E-2,1.6530062E-1,2.942864E-1,-4.013715E-1,-4.4177584E-2,-6.106613E-2,-1.9333735E-1,7.428162E-2,4.0260506E-1,-2.176898E-1,-6.428185E-2,1.883148E-1,8.233791E-3,-1.7513275E-1,2.0062764E-1,1.2722391E-1,6.118924E-1,-1.230125E-2,-1.5243924E-1,1.3008396E-2,-7.797799E-2,-2.8835833E-1,-1.8095095E-2,3.2760065E-2,-8.8325135E-2,-1.432278E-1,2.6493374E-2,-6.8450406E-2,8.946822E-2,1.9493902E-2,1.2918094E-1,2.4654405E-1,5.78087E-2,-1.9808921E-1,-4.3657848E-1,7.594767E-2,-1.953441E-1,-6.639897E-2,-6.2511913E-3,-2.23925E-1,-1.12360775E-1,2.9423466E-1,7.125091E-2,-6.7702614E-2,-1.9021682E-1,-1.819162E-1,-3.687987E-2,6.7782246E-2,1.6773698E-1,2.55798E-2,-2.2274022E-1,-1.8754618E-1,3.4663725E-1,2.719962E-1,3.9757036E-2,2.665717E-1,-7.2287336E-2,5.6098276E-1,2.949132E-1,-1.2676348E-1,1.0380429E-2,-1.5090884E-1,-8.23471E-2,-1.1419752E-2,7.026337E-2,-3.8158828E-1,-4.421211E-2,-1.2653498E-1,-3.495112E-1,1.336342E-1,-1.9117922E-2,7.0126906E-2,1.6420173E-2,-4.7203287E-2,-3.343058E-1],"categories":[],"categories_nodes":[],"categories_segments":[],"categories_sizes":[],"default_left":[0,0,0,0,0,0,0,0,0,0,0,0,0,0,0,0,0,0,0,0,0,0,0,0,0,0,0,0,0,0,0,0,0,0,0,0,0,0,0,0,0,0,0,0,0,0,0,0,0,0,0,0,0,0,0,0,0,0,0,0,0,0,0,0,0,0,0,0,0,0,0,0,0,0,0,0,0,0,0,0,0,0,0,0,0,0,0,0,0,0,0,0,0,0,0,0,0,0,0,0,0,0,0,0,0,0,0,0,0,0,0],"id":4,"left_children":[1,3,5,-1,-1,7,9,11,13,15,17,19,21,23,25,27,29,31,33,35,37,39,41,-1,43,-1,-1,45,47,49,51,53,55,57,59,61,63,65,67,69,71,73,75,-1,77,79,81,83,85,87,89,91,93,95,97,99,101,103,105,107,109,-1,-1,-1,-1,-1,-1,-1,-1,-1,-1,-1,-1,-1,-1,-1,-1,-1,-1,-1,-1,-1,-1,-1,-1,-1,-1,-1,-1,-1,-1,-1,-1,-1,-1,-1,-1,-1,-1,-1,-1,-1,-1,-1,-1,-1,-1,-1,-1,-1,-1],"loss_changes":[1.7569938E3,2.2454456E2,4.840319E2,0E0,0E0,4.085433E2,3.192922E2,3.4674658E2,8.79893E1,1.00345636E3,3.4692673E2,7.5753876E1,1.7276764E2,4.892688E1,1.4161448E1,3.1017218E2,5.686559E2,1.22049164E2,2.0993556E2,2.2815002E1,1.9332703E1,1.5560559E2,1.6697772E2,0E0,4.659616E1,0E0,0E0,6.3815933E1,5.8041153E1,1.654693E2,1.6577686E2,1.3245929E2,6.994853E1,3.2484283E2,2.2909602E2,1.4101226E1,1.3154423E1,8.341537E0,2.2607925E1,8.063895E1,7.2634895E1,2.0869446E2,4.3067352E1,0E0,1.2656555E1,2.1189743E1,3.7444183E1,2.9272247E1,2.3211475E1,8.5623375E1,2.1514374E2,4.8162323E1,1.8039136E2,4.4313034E1,4.891443E1,5.258745E1,9.9373505E1,1.095647E2,1.0777009E2,1.6111761E2,1.3526901E2,0E0,0E0,0E0,0E0,0E0,0E0,0E0,0E0,0E0,0E0,0E0,0E0,0E0,0E0,0E0,0E0,0E0,0E0,0E0,0E0,0E0,0E0,0E0,0E0,0E0,0E0,0E0,0E0,0E0,0E0,0E0,0E0,0E0,0E0,0E0,0E0,0E0,0E0,0E0,0E0,0E0,0E0,0E0,0E0,0E0,0E0,0E0,0E0,0E0,0E0],"parents":[2147483647,0,0,1,1,2,2,5,5,6,6,7,7,8,8,9,9,10,10,11,11,12,12,13,13,14,14,15,15,16,16,17,17,18,18,19,19,20,20,21,21,22,22,24,24,27,27,28,28,29,29,30,30,31,31,32,32,33,33,34,34,35,35,36,36,37,37,38,38,39,39,40,40,41,41,42,42,44,44,45,45,46,46,47,47,48,48,49,49,50,50,51,51,52,52,53,53,54,54,55,55,56,56,57,57,58,58,59,59,60,60],"right_children":[2,4,6,-1,-1,8,10,12,14,16,18,20,22,24,26,28,30,32,34,36,38,40,42,-1,44,-1,-1,46,48,50,52,54,56,58,60,62,64,66,68,70,72,74,76,-1,78,80,82,84,86,88,90,92,94,96,98,100,102,104,106,108,110,-1,-1,-1,-1,-1,-1,-1,-1,-1,-1,-1,-1,-1,-1,-1,-1,-1,-1,-1,-1,-1,-1,-1,-1,-1,-1,-1,-1,-1,-1,-1,-1,-1,-1,-1,-1,-1,-1,-1,-1,-1,-1,-1,-1,-1,-1,-1,-1,-1,-1],"split_conditions":[-9.5703125E-1,-5.78125E-1,-6.796875E-1,8.4787536E-1,-3.0920266E-3,5E-1,-5.703125E-1,-9.765625E-1,5.7421875E-1,-6.171875E-1,9.6875E-1,-6.2109375E-1,-9.0234375E-1,5.1171875E-1,9.6875E-1,-7.8125E-2,-3.0078125E-1,-6.640625E-2,-8.75E-1,-8.769531E-1,-2.5E-1,-2.5E-1,2.96875E-1,1.7633081E-3,-8.730469E-1,7.297396E-5,-4.01991E-3,9.6875E-1,3.359375E-1,-9.0234375E-1,-8.847656E-1,-8.7109375E-1,-1.25E-1,-9.0234375E-1,3.5546875E-1,0E0,-8.984375E-1,-8.828125E-1,7.421875E-2,-9.160156E-1,-9.160156E-1,-3.0859375E-1,-8.730469E-1,1.2328803E-3,-6.582031E-1,-8.7109375E-1,-9.0234375E-1,9.6875E-1,5.7421875E-1,5E-1,9.6875E-1,8.125E-1,9.6875E-1,-8.7890625E-1,-3.046875E-1,-5E-1,9.0625E-1,-9.160156E-1,-8.90625E-1,-8.359375E-1,5.7421875E-1,-6.487465E-3,3.3774136E-3,-9.023488E-3,5.315542E-3,5.54502E-4,3.8261055E-3,1.2592912E-2,2.1644353E-3,-2.7930712E-2,-5.61519E-2,1.3337588E-2,-3.875923E-2,-2.8042197E-3,-1.7119049E-4,-4.7802744E-3,-2.7552783E-3,6.2201438E-3,2.2650717E-3,-2.277255E-3,-1.0230958E-2,-2.698518E-2,-1.591742E-3,2.0193218E-3,4.6111704E-3,6.5359473E-4,-3.729975E-3,-2.5283957E-2,1.4620687E-1,2.0815061E-2,2.1442412E-3,2.251253E-2,-4.9225925E-3,3.2256745E-2,9.088075E-3,-5.533713E-3,4.852414E-4,-7.5143157E-3,-5.096203E-3,-2.968192E-4,1.9726336E-3,-3.7070774E-2,-1.7822922E-3,-1.927589E-2,-4.2732786E-2,8.7739825E-3,-7.199347E-4,9.695232E-3,7.8072544E-4,-1.3083577E-3,-5.6180772E-3],"split_indices":[8,3,0,0,0,3,0,0,3,0,5,3,8,3,5,3,3,3,2,6,2,2,3,0,8,0,0,5,3,8,8,8,2,8,3,2,8,8,3,8,8,3,8,0,8,8,8,5,3,2,5,5,5,6,0,2,5,8,8,3,3,0,0,0,0,0,0,0,0,0,0,0,0,0,0,0,0,0,0,0,0,0,0,0,0,0,0,0,0,0,0,0,0,0,0,0,0,0,0,0,0,0,0,0,0,0,0,0,0,0,0],"split_type":[0,0,0,0,0,0,0,0,0,0,0,0,0,0,0,0,0,0,0,0,0,0,0,0,0,0,0,0,0,0,0,0,0,0,0,0,0,0,0,0,0,0,0,0,0,0,0,0,0,0,0,0,0,0,0,0,0,0,0,0,0,0,0,0,0,0,0,0,0,0,0,0,0,0,0,0,0,0,0,0,0,0,0,0,0,0,0,0,0,0,0,0,0,0,0,0,0,0,0,0,0,0,0,0,0,0,0,0,0,0,0],"sum_hessian":[5.937962E5,2.2832847E3,5.9151294E5,2.0557935E3,2.2749135E2,1.4671762E5,4.4479528E5,1.4147911E5,5.238522E3,4.3664047E4,4.0113122E5,7.5412886E3,1.3393781E5,4.671363E3,5.6715936E2,2.8506723E4,1.5157324E4,6.683068E4,3.3430056E5,2.5415725E3,4.9997163E3,5.0932456E3,1.2884457E5,1.6083239E3,3.063039E3,2.807524E2,2.8640698E2,1.975706E4,8.749662E3,9.332255E3,5.8250693E3,3.194511E4,3.488557E4,6.0776273E4,2.7352428E5,1.0246356E3,1.5169369E3,3.1545566E3,1.8451595E3,3.0696309E3,2.0236144E3,1.1846502E5,1.0379548E4,6.83004E2,2.380035E3,3.2438643E3,1.6513195E4,6.2401147E3,2.5095476E3,1.373447E3,7.958808E3,8.2230493E2,5.002764E3,9.675162E3,2.2269947E4,2.052567E4,1.4359898E4,4.8304116E3,5.5945863E4,2.5688767E5,1.66366E4,6.427226E2,3.8191302E2,3.2949796E2,1.187439E3,3.8770703E2,2.7668496E3,1.4482668E3,3.9689267E2,2.0044711E3,1.0651599E3,1.2267632E3,7.968513E2,7.187901E4,4.6586016E4,2.1357476E3,8.243801E3,2.2471887E3,1.3284636E2,1.0026086E3,2.2412559E3,9.2301605E2,1.5590181E4,2.2432903E3,3.9968245E3,2.3101008E3,1.9944682E2,1.206972E3,1.66475E2,3.4496328E3,4.5091753E3,3.9122107E2,4.3108383E2,2.5068577E3,2.4959067E3,1.3390034E3,8.336158E3,7.9107886E3,1.4359159E4,1.5368516E4,5.157156E3,4.4038864E2,1.391951E4,3.2000479E3,1.6303638E3,2.3619934E3,5.358387E4,3.1146111E4,2.2574156E5,1.5790285E4,8.4631476E2],"tree_param":{"num_deleted":"0","num_feature":"9","num_nodes":"111","size_leaf_vector":"1"}},{"base_weights":[-2.0044234E-3,-2.9492691E-2,1.5392963E-2,-1.3477647E-1,-1.3070771E-2,5.965388E-2,-6.4060353E-3,-6.284137E-2,-2.2295551E-1,-8.365744E-2,-2.4710933E-3,4.1350435E-2,1.6553833E-1,-4.7057387E-1,-5.0455285E-3,-5.122566E-1,-3.6560208E-2,-2.712155E-1,2.7375618E-2,-2.0233536E-1,-8.798691E-3,1.2340418E-2,-2.7348222E-2,7.493874E-3,1.18776396E-1,2.2023292E-1,7.740439E-2,-6.6846603E-1,1.882508E-1,-9.182745E-3,8.9604236E-2,-6.0281537E-2,-6.380759E-1,3.5891125E-1,-7.855482E-2,-3.2051152E-1,-1.8502162E-1,5.1245116E-2,-2.3240401E-1,-2.1704459E-1,4.7742793E-1,2.527136E-2,-2.3724698E-1,-9.982779E-3,5.7364482E-2,-7.584726E-2,4.131909E-3,-1.9257206E-1,2.1983065E-2,4.5755506E-1,1.0858553E-1,3.9547154E-1,1.7791378E-1,6.78003E-2,2.885253E-1,-2.2384655E-1,-7.861381E-1,-2.1179011E-2,1.25517165E-2,1.456178E-1,-4.3906823E-2,-5.370799E-1,-2.9849225E-1,1.4492573E-1,6.302842E-1,4.7759208E-1,-9.482931E-2,-2.0760895E-1,-5.5422586E-1,-4.0510437E-1,8.721998E-2,1.4815506E-1,-4.289997E-2,-1.07416056E-1,-3.0462855E-1,-7.456949E-2,5.1127505E-2,-2.8238246E-1,-4.7154177E-2,2.4021488E-2,-5.214464E-2,1.07263036E-1,3.9465856E-2,-1.1313849E-1,-2.1546427E-2,2.261767E-1,-8.935361E-3,-7.4162623E-3,-8.118712E-1,8.549637E-2,-1.6112762E-2,2.8255376E-1,5.670165E-1,5.477026E-2,1.8300825E-1,5.0470257E-1,8.8687055E-2,-1.1928428E-1,2.0253278E-1,5.8714498E-2,2.6873127E-1,-4.7703835E-1,-6.4767784E-1,-2.3123693E-2,5.19387E-1,7.7048495E-2,-6.2587527E-3,-6.1825812E-2,1.9572751E-1,1.5371221E-1,-9.881338E-2,2.9996175E-1,-2.3523783E-2,3.3937603E-1,4.808339E-1,4.704911E-1,2.2522615E-2,-1.4355254E-1,6.7554507E-3,-7.6998316E-2,-2.2741614E-1,-4.2943394E-1,-8.231061E-2,-2.5193542E-1,-4.3356478E-1,1.939882E-2,3.3142316E-1,-2.254067E-2,1.6626725E-1,-2.0324065E-1,3.827638E-2,-1.1941448E-1,4.0169768E-2,-2.4672185E-1,3.5484556E-2,5.600563E-3,-1.05657645E-1,1.5125544E-2,8.522708E-2,-2.9246405E-2,-2.3056218E-1,-1.1551237E-1,5.4630913E-2,-5.239392E-2,4.3239754E-2,-9.355571E-2,-4.077022E-3,9.294263E-2,-6.593364E-2,7.027548E-2,6.764482E-3,1.562568E-1,-8.463889E-2,9.774009E-3,-6.9665E-2,1.0548814E-1,2.6683918E-1,-1.0835739E-2,1.3690707E-1,-5.3190496E-2,2.1823657E-1,-5.868268E-1,-4.1978565E-1,-1.7186094E-2,9.04037E-2,1.9985625E-1,-1.8595148E-2,-8.8478625E-2,5.701879E-1,4.9746028E-1,3.232711E-1,7.966586E-2,-8.307532E-2,1.1190638E-1,2.4971347E-1,4.0770993E-1,8.973889E-2,-7.840312E-3,2.0493941E-1,-1.6206127E-1,5.8253076E-2,1.6318569E-1,5.051084E-2,6.5341316E-2,4.377333E-3,-7.0297085E-2,-9.3285935E-3,2.6838678E-1,5.6778413E-1,1.4746958E-1,2.1470675E-2,2.3613465E-3,-6.950693E-2,-8.523854E-2,1.241544E-1,2.1659163E-1,8.483136E-2,-8.169912E-3,2.2818203E-1,-1.1000151E-1,4.8004255E-2],"categories":[],"categories_nodes":[],"categories_segments":[],"categories_sizes":[],"default_left":[0,0,0,0,0,0,0,0,0,0,0,0,0,0,0,0,0,0,0,0,0,0,0,0,0,0,0,0,0,0,0,0,0,0,0,0,0,0,0,0,0,0,0,0,0,0,0,0,0,0,0,0,0,0,0,0,0,0,0,0,0,0,0,0,0,0,0,0,0,0,0,0,0,0,0,0,0,0,0,0,0,0,0,0,0,0,0,0,0,0,0,0,0,0,0,0,0,0,0,0,0,0,0,0,0,0,0,0,0,0,0,0,0,0,0,0,0,0,0,0,0,0,0,0,0,0,0,0,0,0,0,0,0,0,0,0,0,0,0,0,0,0,0,0,0,0,0,0,0,0,0,0,0,0,0,0,0,0,0,0,0,0,0,0,0,0,0,0,0,0,0,0,0,0,0,0,0,0,0,0,0,0,0,0,0,0,0,0,0,0,0,0,0,0,0,0,0,0,0,0,0],"id":5,"left_children":[1,3,5,7,9,11,13,15,17,19,21,23,25,27,29,31,33,35,37,39,41,43,45,47,49,51,53,55,-1,57,59,-1,61,63,65,67,69,71,-1,73,-1,75,77,79,81,83,85,87,89,91,93,95,97,99,-1,-1,101,103,105,107,109,-1,-1,111,113,115,117,119,121,123,125,127,129,131,133,135,137,139,141,143,145,147,149,151,153,155,157,159,161,163,165,167,169,171,173,175,177,179,181,183,-1,-1,-1,185,187,189,191,193,195,197,199,-1,-1,-1,-1,-1,-1,-1,-1,-1,-1,-1,-1,-1,-1,-1,-1,-1,-1,-1,-1,-1,-1,-1,-1,-1,-1,-1,-1,-1,-1,-1,-1,-1,-1,-1,-1,-1,-1,-1,-1,-1,-1,-1,-1,-1,-1,-1,-1,-1,-1,-1,-1,-1,-1,-1,-1,-1,-1,-1,-1,-1,-1,-1,-1,-1,-1,-1,-1,-1,-1,-1,-1,-1,-1,-1,-1,-1,-1,-1,-1,-1,-1,-1,-1,-1,-1,-1,-1,-1,-1],"loss_changes":[2.8396854E2,3.9792276E2,3.5086188E2,1.9697095E2,1.4896455E2,2.3255713E2,1.5386212E2,2.0199931E2,1.6855695E2,2.3093324E2,6.3784092E1,2.6820337E2,8.5236145E1,1.04382614E2,9.5131645E1,5.0606384E1,2.6841013E2,4.9640564E1,1.9368294E1,1.3094003E2,1.2407782E2,1.09056274E2,9.863176E1,2.0636143E2,1.0741815E2,8.085718E1,2.1752155E1,2.2808472E1,0E0,6.068927E1,7.609442E1,0E0,1.9614594E1,9.000247E1,1.3227739E2,1.9619653E2,2.5516092E2,1.9313904E1,0E0,9.493414E1,0E0,3.581684E1,1.7737953E1,1.0400053E2,3.211705E1,5.1487152E1,1.13669945E2,5.512516E2,1.6061584E2,1.7246979E1,1.2102466E2,7.106088E1,6.435077E1,1.889377E1,0E0,0E0,5.477356E0,1.576775E2,1.00433464E2,7.451851E1,3.265123E1,0E0,0E0,4.399936E1,5.298218E0,3.598445E1,1.6350804E2,5.7405365E1,6.2607056E1,2.2581787E1,4.3755806E1,1.6819443E1,2.5953154E1,4.5758663E1,9.3451385E1,1.7998882E1,2.2971935E1,1.8887634E1,5.8886333E0,1.498761E2,1.2226813E2,4.8809135E1,4.806663E1,3.944658E1,2.8669851E1,2.541977E1,4.952291E1,8.1046745E1,5.7077026E0,1.1955975E2,1.3081558E2,7.6612366E1,8.104523E0,1.7962236E2,5.0927246E1,4.5718903E1,1.1385442E1,1.5319204E1,3.2364746E1,1.1632986E1,0E0,0E0,0E0,1.1317742E2,2.1017792E1,1.1582606E2,5.7435307E1,2.0026981E1,4.8887405E1,1.8646347E1,2.2999567E1,0E0,0E0,0E0,0E0,0E0,0E0,0E0,0E0,0E0,0E0,0E0,0E0,0E0,0E0,0E0,0E0,0E0,0E0,0E0,0E0,0E0,0E0,0E0,0E0,0E0,0E0,0E0,0E0,0E0,0E0,0E0,0E0,0E0,0E0,0E0,0E0,0E0,0E0,0E0,0E0,0E0,0E0,0E0,0E0,0E0,0E0,0E0,0E0,0E0,0E0,0E0,0E0,0E0,0E0,0E0,0E0,0E0,0E0,0E0,0E0,0E0,0E0,0E0,0E0,0E0,0E0,0E0,0E0,0E0,0E0,0E0,0E0,0E0,0E0,0E0,0E0,0E0,0E0,0E0,0E0,0E0,0E0,0E0,0E0,0E0,0E0,0E0,0E0,0E0,0E0],"parents":[2147483647,0,0,1,1,2,2,3,3,4,4,5,5,6,6,7,7,8,8,9,9,10,10,11,11,12,12,13,13,14,14,15,15,16,16,17,17,18,18,19,19,20,20,21,21,22,22,23,23,24,24,25,25,26,26,27,27,29,29,30,30,32,32,33,33,34,34,35,35,36,36,37,37,39,39,41,41,42,42,43,43,44,44,45,45,46,46,47,47,48,48,49,49,50,50,51,51,52,52,53,53,56,56,57,57,58,58,59,59,60,60,63,63,64,64,65,65,66,66,67,67,68,68,69,69,70,70,71,71,72,72,73,73,74,74,75,75,76,76,77,77,78,78,79,79,80,80,81,81,82,82,83,83,84,84,85,85,86,86,87,87,88,88,89,89,90,90,91,91,92,92,93,93,94,94,95,95,96,96,97,97,98,98,99,99,103,103,104,104,105,105,106,106,107,107,108,108,109,109,110,110],"right_children":[2,4,6,8,10,12,14,16,18,20,22,24,26,28,30,32,34,36,38,40,42,44,46,48,50,52,54,56,-1,58,60,-1,62,64,66,68,70,72,-1,74,-1,76,78,80,82,84,86,88,90,92,94,96,98,100,-1,-1,102,104,106,108,110,-1,-1,112,114,116,118,120,122,124,126,128,130,132,134,136,138,140,142,144,146,148,150,152,154,156,158,160,162,164,166,168,170,172,174,176,178,180,182,184,-1,-1,-1,186,188,190,192,194,196,198,200,-1,-1,-1,-1,-1,-1,-1,-1,-1,-1,-1,-1,-1,-1,-1,-1,-1,-1,-1,-1,-1,-1,-1,-1,-1,-1,-1,-1,-1,-1,-1,-1,-1,-1,-1,-1,-1,-1,-1,-1,-1,-1,-1,-1,-1,-1,-1,-1,-1,-1,-1,-1,-1,-1,-1,-1,-1,-1,-1,-1,-1,-1,-1,-1,-1,-1,-1,-1,-1,-1,-1,-1,-1,-1,-1,-1,-1,-1,-1,-1,-1,-1,-1,-1,-1,-1,-1,-1,-1,-1],"split_conditions":[-8.769531E-1,-8.808594E-1,-8.7109375E-1,-8.886719E-1,-7.5390625E-1,-8.730469E-1,-9.5703125E-1,-9.921875E-1,-9.375E-2,-6.25E-1,1.25E-1,-2.5E-1,-2.578125E-1,-8.125E-1,-2.5E-1,-9.5703125E-1,-9.765625E-1,-8.828125E-1,-9.0625E-1,-1.5625E-1,-7.65625E-1,-8.6328125E-1,5E-1,-9.277344E-1,-9.921875E-1,-6.6015625E-1,6.25E-1,-8.6328125E-1,1.706727E-2,-8.3203125E-1,8.203125E-2,-6.522579E-2,-6.25E-1,-5E-1,-9.5703125E-1,-6.3671875E-1,-5.7421875E-1,1.6796875E-1,-7.6634763E-3,-8.730469E-1,1.7976688E-1,-7.265625E-1,-7.578125E-1,-8.730469E-1,-4.453125E-1,-8.378906E-1,-8.652344E-1,-9.355469E-1,-6.5234375E-1,-9.5703125E-1,-8.808594E-1,1.25E-1,-6.40625E-1,4.6875E-1,2.6235163E-2,-1.6389728E-2,-8.4765625E-1,-6.875E-1,-5.625E-1,-8.203125E-1,1.25E-1,-1.582199E-1,-9.354937E-2,-9.355469E-1,-1.25E-1,-7.890625E-1,-9.0234375E-1,-5E-1,1.25E-1,-6.8359375E-1,-1.25E-1,-8.808594E-1,2.578125E-1,-1.484375E-1,-8.457031E-1,-8.671875E-1,-8.535156E-1,-8.7109375E-1,-8.613281E-1,-8.7890625E-1,-3.9453125E-1,-7.597656E-1,-8.535156E-1,-8.7890625E-1,8.984375E-2,-5.078125E-1,-3.0078125E-1,-9.765625E-1,-7.109375E-1,-8.9453125E-1,-8.9453125E-1,-8.75E-1,-9.472656E-1,-8.8671875E-1,6.25E-1,-8.730469E-1,6.25E-1,-5.546875E-1,-5E-1,3.90625E-2,5.841255E-3,-3.437391E-2,-1.4472201E-1,-7.578125E-1,-6.25E-2,1.25E-1,-7.6171875E-1,-7.8125E-2,-4.296875E-1,-8.6328125E-1,-3.515625E-2,4.8467897E-2,-2.1369813E-3,6.2350057E-2,9.799089E-2,1.324566E0,2.6426672E-3,-2.3341656E-2,4.1080712E-4,-3.515184E-3,-2.5901377E-2,-3.0572379E-2,-8.665919E-3,-1.6708659E-2,-2.8167283E-2,5.6735275E-4,2.5829028E-2,-5.0092937E-4,5.4794312E-3,-7.6007247E-3,1.1611581E-3,-3.923571E-3,1.7200827E-3,-1.6326891E-2,9.565138E-3,2.1804571E-4,-1.6353345E-2,1.5164732E-3,1.2842417E-2,-3.181398E-3,-2.7527833E-2,-9.977532E-3,8.207381E-3,-1.4017343E-3,9.5137354E-4,-4.7632516E-3,-1.39606E-4,6.4021824E-3,-6.651604E-3,2.4375557E-3,2.3465157E-4,8.985686E-3,-3.6379753E-3,6.8609713E-4,-2.092421E-3,9.946322E-3,1.5576833E-2,-3.4171343E-4,1.25174755E-2,-1.3802218E-2,9.8230384E-2,-1.9334796E-1,-1.3718738E-1,-1.5824795E-3,4.021704E-3,1.8590545E-2,-4.6054125E-4,-6.522579E-2,4.816492E-1,1.2520063E-1,4.9520325E-2,1.3780105E-2,-9.858453E-3,4.6057045E-3,2.6732588E-2,1.27360225E-2,3.2321333E-3,-5.722761E-4,1.5339804E-2,-4.6827258E-3,2.643335E-3,3.4591495E-3,1.6495704E-3,2.3470162E-3,2.1224617E-4,-6.469941E-3,-3.53688E-4,6.902461E-2,2.257459E-1,1.8366825E-2,2.7034164E-3,1.1920333E-4,-4.976916E-3,-5.351925E-3,5.201721E-3,4.4511367E-2,8.653236E-3,-2.1558403E-4,1.1496842E-2,-6.696582E-3,3.1239032E-3],"split_indices":[6,8,8,8,3,8,3,3,3,2,2,2,0,1,7,8,3,8,1,1,3,8,2,8,3,3,2,8,0,8,3,0,2,2,8,3,3,3,0,8,0,0,3,8,3,8,8,8,3,8,8,2,3,3,0,0,8,1,3,6,2,0,0,8,2,3,8,2,2,3,2,6,3,0,8,8,8,8,8,6,3,8,8,8,3,3,8,3,3,8,8,6,8,8,2,6,2,0,7,0,0,0,0,3,1,2,6,3,3,6,6,0,0,0,0,0,0,0,0,0,0,0,0,0,0,0,0,0,0,0,0,0,0,0,0,0,0,0,0,0,0,0,0,0,0,0,0,0,0,0,0,0,0,0,0,0,0,0,0,0,0,0,0,0,0,0,0,0,0,0,0,0,0,0,0,0,0,0,0,0,0,0,0,0,0,0,0,0,0,0,0,0,0,0,0,0,0,0,0,0,0],"split_type":[0,0,0,0,0,0,0,0,0,0,0,0,0,0,0,0,0,0,0,0,0,0,0,0,0,0,0,0,0,0,0,0,0,0,0,0,0,0,0,0,0,0,0,0,0,0,0,0,0,0,0,0,0,0,0,0,0,0,0,0,0,0,0,0,0,0,0,0,0,0,0,0,0,0,0,0,0,0,0,0,0,0,0,0,0,0,0,0,0,0,0,0,0,0,0,0,0,0,0,0,0,0,0,0,0,0,0,0,0,0,0,0,0,0,0,0,0,0,0,0,0,0,0,0,0,0,0,0,0,0,0,0,0,0,0,0,0,0,0,0,0,0,0,0,0,0,0,0,0,0,0,0,0,0,0,0,0,0,0,0,0,0,0,0,0,0,0,0,0,0,0,0,0,0,0,0,0,0,0,0,0,0,0,0,0,0,0,0,0,0,0,0,0,0,0,0,0,0,0,0,0],"sum_hessian":[5.937962E5,2.3015125E5,3.6364494E5,3.1053656E4,1.990976E5,1.19998E5,2.4364694E5,1.7103002E4,1.3950654E4,2.5993252E4,1.7310434E5,1.0231327E5,1.7684729E4,7.110503E2,2.4293589E5,9.4388104E2,1.6159121E4,1.1695802E4,2.2548533E3,1.0053366E4,1.5939886E4,1.08503375E5,6.4600965E4,7.118627E4,3.1126996E4,1.0911633E4,6.773095E3,5.6101733E2,1.5003293E2,2.3276256E5,1.0173333E4,2.1554181E2,7.2833923E2,1.5504724E3,1.4608648E4,7.438724E3,4.2570776E3,2.1152214E3,1.3963199E2,9.889633E3,1.6373315E2,1.3871955E4,2.06793E3,7.253893E4,3.596445E4,2.542665E4,3.9174316E4,4.8064727E3,6.6379805E4,9.077119E2,3.0219285E4,2.1208982E3,8.790734E3,6.5853755E3,1.8772012E2,1.424949E2,4.1852246E2,1.4998103E5,8.278152E4,7.1665645E3,3.006769E3,4.5066223E2,2.7767697E2,8.677557E2,6.8271674E2,4.145322E2,1.4194116E4,5.017002E3,2.421722E3,2.353775E3,1.9033025E3,1.0420227E3,1.0731986E3,4.39307E3,5.496563E3,2.853104E3,1.1018852E4,1.6707443E3,3.9718576E2,4.0154258E4,3.238467E4,9.493387E3,2.6471064E4,1.5073681E4,1.035297E4,2.1763591E3,3.6997957E4,3.7009795E3,1.1054934E3,2.4886994E4,4.149281E4,3.5066626E2,5.5704565E2,1.7538723E4,1.2680561E4,1.5635492E3,5.5734894E2,6.7219714E2,8.1185376E3,6.4025312E3,1.8284416E2,2.422102E2,1.7631224E2,1.4944436E5,5.3666785E2,1.8691062E4,6.4090457E4,1.3942852E3,5.7722793E3,6.533695E2,2.3533994E3,3.346981E2,5.3305756E2,1.9396921E2,4.887475E2,2.881655E2,1.26366714E2,6.90602E3,7.2880967E3,2.739065E3,2.2779373E3,2.1320073E3,2.897147E2,1.9459888E3,4.0778613E2,1.6501407E3,2.531617E2,3.454707E2,6.96552E2,3.029656E2,7.7023303E2,3.1756575E3,1.2174122E3,4.8444404E3,6.521227E2,1.3713319E3,1.481772E3,7.7717646E3,3.247087E3,2.7330383E2,1.3974404E3,2.0442197E2,1.9276381E2,1.1094824E4,2.9059434E4,1.1734489E4,2.065018E4,8.426584E3,1.0668029E3,8.694239E3,1.7776824E4,3.3989563E2,1.4733785E4,7.114084E3,3.2388855E3,1.4650211E3,7.1133795E2,3.5851676E4,1.146281E3,3.0471262E3,6.538533E2,9.8032245E2,1.2517093E2,7.0682007E3,1.7818795E4,1.3887655E3,4.0104043E4,1.9869257E2,1.519737E2,2.3306429E2,3.2398138E2,1.3085177E4,4.453547E3,1.119164E4,1.4889215E3,1.2955073E3,2.6804193E2,3.7483383E2,1.8251512E2,4.32405E2,2.3979216E2,6.575052E3,1.5434858E3,3.8562168E3,2.5463145E3,1.6809088E4,1.3263528E5,3.6762946E2,1.690384E2,4.8147886E3,1.3876274E4,5.807855E4,6.0119077E3,1.1152754E3,2.7900974E2,2.2846113E3,3.487668E3,3.3381567E2,3.195538E2,1.7452749E3,6.081246E2],"tree_param":{"num_deleted":"0","num_feature":"9","num_nodes":"201","size_leaf_vector":"1"}},{"base_weights":[-2.509093E-3,-1.4336048E-2,1.4395008E-2,-1.8782398E-2,3.6738794E-2,2.1594747E-4,3.7008036E-2,-2.3210501E-2,3.30234E-2,1.2929417E-1,5.62063E-4,5.5625145E-3,-2.6123345E-1,2.9195791E-2,3.0474404E-1,-1.527724E-1,-2.1177083E-2,1.4174648E-1,-1.5188536E-2,-1.995136E-1,1.3608803E-1,4.3964494E-2,-1.6581498E-2,1.7065571E-3,1.6985418E-1,-1.1399912E-1,-3.502271E-1,6.05709E-2,-1.6345019E-3,4.350529E-1,7.974474E-2,-2.4344059E-2,-6.010113E-1,3.0765405E-1,-2.3268871E-2,4.3404907E-2,2.0043813E-1,5.941224E-2,-3.8104318E-2,1.980214E-1,7.967812E-2,1.0242475E-1,-2.0365007E-2,-2.9257413E-2,6.516908E-2,-1.8239521E-3,1.292128E-1,5.720181E-1,-2.5240064E-3,-2.738797E-1,1.2000502E-1,-1.8950038E-1,-5.368137E-1,2.9028188E-2,9.706017E-2,2.9600969E-2,-3.9126102E-2,5.456964E-1,1.7147249E-1,-1.765246E-1,2.1767427E-1,-6.851297E-2,2.3884991E-1,-6.648392E-1,-3.2552904E-1,1.07209936E-1,3.7855378E-1,-1.5253147E-1,-2.0578295E-2,2.9722843E-1,-1.2040073E-2,9.2537075E-2,2.445918E-1,6.2033352E-3,1.4281182E-1,-6.077358E-2,5.0214007E-2,1.782314E-1,1.6971844E-1,6.2953494E-2,1.7239551E-1,6.1545096E-2,1.3863742E-1,6.834878E-2,-6.966383E-2,-5.649699E-2,1.7599216E-2,7.819271E-3,-4.444376E-2,2.3274587E-1,4.348655E-2,4.2315352E-1,5.3400284E-1,2.4726725E-1,-1.4494441E-1,-3.6376372E-2,-3.7073714E-1,2.9088116E-1,-3.0640876E-2,-2.963338E-1,1.3086253E-1,-1.5113324E-1,-6.2551683E-1,4.0552253E-3,8.7599464E-2,1.6247842E-1,5.839198E-2,3.2297432E-2,-1.6343494E-1,-6.839444E-2,3.141453E-2,6.078276E-1,2.6924586E-1,3.25829E-1,3.9327424E-2,-2.4845022E-1,-3.2802615E-2,3.3351222E-1,3.6273107E-2,-6.9793224E-2,8.173413E-2,-5.4554415E-1,-3.9815155E-1,-1.2075085E-2,1.6601801E-1,3.9729995E-1,1.8472977E-1,-2.9385589E-2,-2.6528776E-1,6.631767E-2,-1.6713375E-2,1.5456292E-1,3.1425267E-1,4.9992204E-2,-8.173026E-2,1.810691E-1,3.2767314E-2,1.1792102E-1,2.1705776E-1,-2.5696818E-2,7.333985E-2,7.865107E-2,2.5286177E-1,-1.0919354E-1,-3.2057714E-2,1.1725944E-1,-1.615666E-2,8.0396764E-2,1.5032247E-1,3.2057177E-2,1.0423149E-1,2.6217067E-1,-3.0693016E-3,1.6864887E-1,2.0510208E-2,-4.2406763E-3,1.2698458E-1,3.1610355E-2,-7.602642E-2,-2.1841202E-2,-1.2617156E-1,-1.2973711E-2,4.84513E-2,-3.3422655E-3,3.321078E-2,4.241459E-2,-4.4208977E-2,7.730937E-2,2.981074E-1,1.8836519E-1,-2.9446885E-2,5.116035E-1,1.8832333E-1,3.9941683E-1,-6.661881E-2,6.295182E-2,-2.3148894E-1,-4.3597722E-1,-1.8895485E-1,7.930108E-2,-1.14480965E-1,-3.3368152E-1,-2.0753412E-2,-5.3547513E-1,-2.4934979E-1,2.6256373E-2,-3.0598855E-2,1.0498676E-1,3.3142608E-2,1.1845815E-1,-4.930791E-3,8.3171085E-2,5.0166296E-3,1.9754827E-2,1.7982726E-1,-2.7221527E-2,-9.629463E-2,2.2726713E-1,4.086058E-3,2.7717575E-1,4.6984985E-1,1.5383062E-1,-4.136886E-2,1.1946314E-1,4.481213E-1],"categories":[],"categories_nodes":[],"categories_segments":[],"categories_sizes":[],"default_left":[0,0,0,0,0,0,0,0,0,0,0,0,0,0,0,0,0,0,0,0,0,0,0,0,0,0,0,0,0,0,0,0,0,0,0,0,0,0,0,0,0,0,0,0,0,0,0,0,0,0,0,0,0,0,0,0,0,0,0,0,0,0,0,0,0,0,0,0,0,0,0,0,0,0,0,0,0,0,0,0,0,0,0,0,0,0,0,0,0,0,0,0,0,0,0,0,0,0,0,0,0,0,0,0,0,0,0,0,0,0,0,0,0,0,0,0,0,0,0,0,0,0,0,0,0,0,0,0,0,0,0,0,0,0,0,0,0,0,0,0,0,0,0,0,0,0,0,0,0,0,0,0,0,0,0,0,0,0,0,0,0,0,0,0,0,0,0,0,0,0,0,0,0,0,0,0,0,0,0,0,0,0,0,0,0,0,0,0,0,0,0,0,0,0,0,0,0,0,0,0,0,0,0,0,0],"id":6,"left_children":[1,3,5,7,9,11,13,15,17,19,21,23,25,27,29,31,33,35,37,-1,39,41,43,45,47,49,51,53,55,57,59,61,63,65,67,69,71,73,75,77,79,81,83,85,-1,87,89,91,93,95,97,99,101,103,105,107,109,111,113,115,117,119,-1,121,-1,123,125,127,129,131,133,135,137,139,141,143,145,-1,147,149,151,153,-1,155,157,159,161,163,165,167,169,171,-1,173,175,-1,177,-1,179,181,-1,-1,183,185,187,189,191,193,-1,195,197,199,-1,-1,201,-1,-1,203,-1,-1,-1,-1,-1,-1,-1,-1,-1,-1,-1,-1,-1,-1,-1,-1,-1,-1,-1,-1,-1,-1,-1,-1,-1,-1,-1,-1,-1,-1,-1,-1,-1,-1,-1,-1,-1,-1,-1,-1,-1,-1,-1,-1,-1,-1,-1,-1,-1,-1,-1,-1,-1,-1,-1,-1,-1,-1,-1,-1,-1,-1,-1,-1,-1,-1,-1,-1,-1,-1,-1,-1,-1,-1,-1,-1,-1,-1,-1,-1,-1,-1,-1,-1,-1,-1,-1],"loss_changes":[1.1871452E2,7.9340294E1,7.8373024E1,7.372744E1,9.368286E1,2.1000674E2,1.9702274E2,7.80002E1,1.3265952E2,2.2170578E1,1.4969322E1,9.326641E1,3.9408936E1,8.853827E1,7.826666E1,2.6334613E2,2.0051843E2,4.486673E1,2.997714E1,0E0,2.7012985E1,2.1424744E1,2.0053164E1,6.4755554E1,2.3404921E2,4.2522263E1,5.6158386E1,5.2210556E1,5.4066128E1,4.9220642E1,3.470251E1,5.7456905E1,8.532867E0,2.6146866E1,1.0073961E2,4.0916916E1,2.3173126E1,1.8285378E1,2.6859732E1,5.8627014E0,6.2700806E0,1.16551075E1,1.1869611E1,1.6502209E1,0E0,5.7528683E1,3.4388855E1,2.8454437E1,8.4142944E1,1.4489429E1,2.0567629E1,4.064995E1,2.4562134E1,3.559143E1,5.31949E1,1.7873728E1,4.3323345E1,1.167981E1,1.9461578E1,7.9337816E0,1.2239964E1,1.8356966E1,0E0,7.157074E0,0E0,7.814468E0,2.9341568E1,1.478441E2,1.0791973E2,5.943943E0,2.0868916E1,1.0740208E1,1.7171188E1,1.0649405E1,1.0635063E1,1.5215652E1,2.3564337E1,0E0,6.0549088E0,5.0558176E0,2.2099401E1,1.2094553E1,0E0,8.157377E0,7.8051596E0,2.5586723E1,8.86704E0,5.6963604E1,5.0765373E1,4.1412445E1,4.0957733E1,2.6896675E1,0E0,9.514677E1,6.5749794E1,0E0,1.1768593E1,0E0,5.8859177E0,3.7821533E1,0E0,0E0,2.5233978E1,2.7264557E1,1.8257042E1,8.938217E0,4.091995E1,2.2817429E1,0E0,3.0261963E1,4.615503E1,1.1248474E1,0E0,0E0,6.1756563E0,0E0,0E0,1.8640717E1,0E0,0E0,0E0,0E0,0E0,0E0,0E0,0E0,0E0,0E0,0E0,0E0,0E0,0E0,0E0,0E0,0E0,0E0,0E0,0E0,0E0,0E0,0E0,0E0,0E0,0E0,0E0,0E0,0E0,0E0,0E0,0E0,0E0,0E0,0E0,0E0,0E0,0E0,0E0,0E0,0E0,0E0,0E0,0E0,0E0,0E0,0E0,0E0,0E0,0E0,0E0,0E0,0E0,0E0,0E0,0E0,0E0,0E0,0E0,0E0,0E0,0E0,0E0,0E0,0E0,0E0,0E0,0E0,0E0,0E0,0E0,0E0,0E0,0E0,0E0,0E0,0E0,0E0,0E0,0E0,0E0,0E0,0E0,0E0,0E0,0E0,0E0],"parents":[2147483647,0,0,1,1,2,2,3,3,4,4,5,5,6,6,7,7,8,8,9,9,10,10,11,11,12,12,13,13,14,14,15,15,16,16,17,17,18,18,20,20,21,21,22,22,23,23,24,24,25,25,26,26,27,27,28,28,29,29,30,30,31,31,32,32,33,33,34,34,35,35,36,36,37,37,38,38,39,39,40,40,41,41,42,42,43,43,45,45,46,46,47,47,48,48,49,49,50,50,51,51,52,52,53,53,54,54,55,55,56,56,57,57,58,58,59,59,60,60,61,61,63,63,65,65,66,66,67,67,68,68,69,69,70,70,71,71,72,72,73,73,74,74,75,75,76,76,78,78,79,79,80,80,81,81,83,83,84,84,85,85,86,86,87,87,88,88,89,89,90,90,91,91,93,93,94,94,96,96,98,98,99,99,102,102,103,103,104,104,105,105,106,106,107,107,109,109,110,110,111,111,114,114,117,117],"right_children":[2,4,6,8,10,12,14,16,18,20,22,24,26,28,30,32,34,36,38,-1,40,42,44,46,48,50,52,54,56,58,60,62,64,66,68,70,72,74,76,78,80,82,84,86,-1,88,90,92,94,96,98,100,102,104,106,108,110,112,114,116,118,120,-1,122,-1,124,126,128,130,132,134,136,138,140,142,144,146,-1,148,150,152,154,-1,156,158,160,162,164,166,168,170,172,-1,174,176,-1,178,-1,180,182,-1,-1,184,186,188,190,192,194,-1,196,198,200,-1,-1,202,-1,-1,204,-1,-1,-1,-1,-1,-1,-1,-1,-1,-1,-1,-1,-1,-1,-1,-1,-1,-1,-1,-1,-1,-1,-1,-1,-1,-1,-1,-1,-1,-1,-1,-1,-1,-1,-1,-1,-1,-1,-1,-1,-1,-1,-1,-1,-1,-1,-1,-1,-1,-1,-1,-1,-1,-1,-1,-1,-1,-1,-1,-1,-1,-1,-1,-1,-1,-1,-1,-1,-1,-1,-1,-1,-1,-1,-1,-1,-1,-1,-1,-1,-1,-1,-1,-1,-1,-1,-1],"split_conditions":[-9.375E-1,-8.125E-1,-2.2265625E-1,6.25E-1,-4.296875E-1,-1.9921875E-1,-3.4375E-1,-9.277344E-1,-8.613281E-1,-8.7109375E-1,-1.6015625E-1,-6.25E-2,-1.25E-1,8.984375E-2,9.980469E-1,-9.355469E-1,-9.1796875E-1,-8.808594E-1,-6.7578125E-1,-7.9849124E-2,5E-1,-2.578125E-1,5E-1,-7.5E-1,-7.792969E-1,2.5E-1,1.25E-1,-6.25E-2,-8.28125E-1,1.09375E-1,1.5625E-1,2.5E-1,-1.953125E-1,-9.765625E-1,-9.0234375E-1,-9.2578125E-1,-8.125E-1,-8.417969E-1,-6.25E-2,-5E-1,-4.8046875E-1,-7.792969E-1,1.25E-1,-1.328125E-1,1.3592184E-3,-7.890625E-1,-1.171875E-1,3.125E-1,-1.25E-1,-5.625E-1,-1.484375E-1,-3.3203125E-1,-5.625E-1,-8.75E-1,-7.8125E-3,-8.046875E-1,7.8125E-3,-2.5E-1,3.75E-1,1.875E-1,1.25E-1,-9.6875E-1,9.2318535E-2,-7.5E-1,-6.942499E-2,-5E-1,-9.238281E-1,-9.0625E-1,-8.90625E-1,7.03125E-2,-8.925781E-1,-8.769531E-1,-8.769531E-1,-8.59375E-2,1.640625E-1,-6.3671875E-1,-8.359375E-1,1.2232423E-2,-6.3671875E-1,-8.3203125E-1,-4.140625E-1,-8.7890625E-1,6.6497265E-3,-7.8515625E-1,-1.171875E-1,-2.578125E-1,1.875E-1,-7.8125E-3,-8.125E-1,-5.078125E-1,-6.953125E-1,-1.25E-1,4.2001095E-1,-5.2734375E-1,1.5625E-1,-4.543912E-3,-6.171875E-1,2.0869887E-2,7.5E-1,-6.640625E-1,1.07897995E-2,-1.2959492E-2,-7.265625E-1,-2.578125E-1,-1.6015625E-1,-2.5E-1,-8.496094E-1,-8.671875E-1,-6.4854203E-3,-2.578125E-1,3.90625E-2,-2.8125E-1,2.066636E-2,1.8350136E-2,-8.59375E-2,-1.5079367E-2,-1.5508533E-3,1.953125E-1,2.4531602E-3,-1.5326452E-2,4.0387105E-2,-6.646739E-2,-1.0701162E-1,-1.8743753E-3,1.6626548E-2,4.95391E-2,1.9285738E-2,-3.5211921E-3,-3.376337E-2,5.5011273E-3,-5.8183074E-4,2.925167E-2,1.1382562E-1,6.7830323E-3,-9.368372E-3,1.4648115E-2,3.4846424E-3,8.0091115E-3,1.668784E-2,-3.4463406E-3,9.254551E-3,8.580387E-3,3.123945E-2,-8.186602E-3,-1.6211151E-3,4.024249E-3,-3.8827656E-4,7.232475E-3,1.1917495E-2,3.0675768E-3,2.0066464E-2,1.6842509E-2,-8.508205E-4,5.241942E-3,8.527398E-4,-1.7749071E-4,6.9731236E-3,1.8346548E-3,-5.064702E-3,-5.631804E-4,-4.3856143E-3,-5.373955E-4,1.8644452E-3,-1.8900633E-4,2.5625585E-3,2.822244E-3,-3.799653E-3,1.7251061E-2,2.7626717E-2,6.1975632E-2,-4.3055057E-3,3.0691257E-1,6.700437E-2,8.453723E-2,-9.620297E-3,1.1203277E-2,-3.8956832E-2,-2.4802929E-2,-1.38841625E-2,6.4151166E-3,-5.603516E-3,-3.3581376E-2,-2.60036E-3,-5.263864E-2,-3.0302346E-2,8.827805E-4,-1.2284993E-3,5.508053E-3,1.6196131E-3,4.2925715E-3,-9.00805E-4,2.5227547E-3,1.5967488E-4,5.060613E-4,8.846122E-3,-8.1760884E-4,-3.3243834E-3,9.8748505E-3,1.229167E-4,2.317376E-2,2.5628423E-2,6.349945E-3,-2.9495E-3,6.71736E-3,1.8775547E-2],"split_indices":[1,8,3,2,3,8,1,8,8,3,3,1,1,3,8,8,8,8,3,0,2,0,3,6,8,2,2,3,8,3,1,2,0,3,8,3,3,8,3,2,3,8,2,0,0,8,0,1,2,6,0,3,3,1,3,6,0,7,2,3,2,3,0,2,0,4,8,8,8,0,8,8,6,0,0,3,8,0,3,6,0,6,0,8,0,0,3,0,1,3,3,2,0,8,1,0,0,0,2,6,0,0,6,0,3,7,8,6,0,0,0,1,0,0,0,0,0,3,0,0,0,0,0,0,0,0,0,0,0,0,0,0,0,0,0,0,0,0,0,0,0,0,0,0,0,0,0,0,0,0,0,0,0,0,0,0,0,0,0,0,0,0,0,0,0,0,0,0,0,0,0,0,0,0,0,0,0,0,0,0,0,0,0,0,0,0,0,0,0,0,0,0,0,0,0,0,0,0,0,0,0,0,0,0,0],"split_type":[0,0,0,0,0,0,0,0,0,0,0,0,0,0,0,0,0,0,0,0,0,0,0,0,0,0,0,0,0,0,0,0,0,0,0,0,0,0,0,0,0,0,0,0,0,0,0,0,0,0,0,0,0,0,0,0,0,0,0,0,0,0,0,0,0,0,0,0,0,0,0,0,0,0,0,0,0,0,0,0,0,0,0,0,0,0,0,0,0,0,0,0,0,0,0,0,0,0,0,0,0,0,0,0,0,0,0,0,0,0,0,0,0,0,0,0,0,0,0,0,0,0,0,0,0,0,0,0,0,0,0,0,0,0,0,0,0,0,0,0,0,0,0,0,0,0,0,0,0,0,0,0,0,0,0,0,0,0,0,0,0,0,0,0,0,0,0,0,0,0,0,0,0,0,0,0,0,0,0,0,0,0,0,0,0,0,0,0,0,0,0,0,0,0,0,0,0,0,0,0,0,0,0,0,0],"sum_hessian":[5.937962E5,3.493639E5,2.444323E5,3.2138606E5,2.7977824E4,1.5023277E5,9.419952E4,2.9607922E5,2.530684E4,7.8616997E3,2.0116125E4,1.4722308E5,3.0096921E3,9.152989E4,2.6696343E3,4.5738906E3,2.9150534E5,7.773907E3,1.7532932E4,1.26174416E2,7.7355254E3,5.695426E3,1.4420699E4,1.4384795E5,3.3751292E3,1.1346938E3,1.8749982E3,4.5363645E4,4.616625E4,1.6899576E3,9.7967664E2,3.5560686E3,1.0178221E3,1.8417041E3,2.8966362E5,2.9061726E3,4.867735E3,4.1197554E3,1.3413177E4,3.6860447E3,4.0494805E3,2.9835208E3,2.711905E3,1.2927393E4,1.4933063E3,1.3997323E5,3.874721E3,1.0119345E3,2.3631946E3,6.740124E2,4.6068146E2,1.0083852E3,8.6661304E2,2.4331965E4,2.103168E4,2.5184463E4,2.0981785E4,1.189549E3,5.004086E2,3.4268933E2,6.369873E2,3.1734465E3,3.8262207E2,6.900186E2,3.2780344E2,4.8187723E2,1.3598269E3,5.905219E3,2.837584E5,5.2023047E2,2.385942E3,1.4143922E3,3.4533425E3,2.5157693E3,1.6039858E3,1.0673777E4,2.7393992E3,1.226175E3,2.4598696E3,3.4320725E3,6.17408E2,2.0912083E3,8.9231244E2,9.685685E2,1.7433364E3,8.174837E3,4.7525557E3,1.1414698E5,2.5826252E4,1.7543033E3,2.1204177E3,5.7029816E2,4.4163632E2,8.57859E2,1.5053356E3,2.0526318E2,4.6874918E2,1.5494652E2,3.0573495E2,7.856384E2,2.2274675E2,1.8841219E2,6.782008E2,1.7059428E4,7.2725376E3,7.812094E3,1.3219586E4,2.4929818E4,2.5464409E2,1.4829033E4,6.1527515E3,8.564036E2,3.331454E2,1.5439247E2,3.4601614E2,1.4350438E2,1.9918497E2,3.7445035E2,2.62537E2,2.716568E3,4.568785E2,3.1151987E2,3.7849878E2,2.4658888E2,2.3528833E2,5.1192404E2,8.4790283E2,3.96884E3,1.936379E3,7.8887637E3,2.7586966E5,3.4758325E2,1.7264725E2,1.3279294E3,1.0580126E3,3.0426947E2,1.1101227E3,1.5985707E3,1.8547719E3,1.7531399E3,7.626295E2,1.4090441E3,1.9494177E2,1.4494294E3,9.224349E3,1.0529684E3,1.6864307E3,1.110406E3,1.3494637E3,2.8622314E3,5.6984106E2,2.8752625E2,3.298818E2,3.1764386E2,1.7735645E3,5.8470325E2,3.838653E2,4.415037E2,1.3018328E3,6.7884634E3,1.3863735E3,2.7959587E3,1.9565972E3,8.6618016E4,2.752896E4,3.9048472E3,2.1921404E4,1.0750481E3,6.7925525E2,5.824194E2,1.5379983E3,1.8906946E2,3.8122873E2,4.4089792E2,4.169611E2,6.6499835E2,8.403373E2,1.3241742E2,3.363318E2,1.468504E2,1.5888454E2,4.6821033E2,3.174281E2,4.45616E2,2.3258484E2,1.0033061E4,7.026366E3,2.851194E3,4.4213433E3,7.5130537E3,2.990408E2,6.064624E3,7.1549614E3,2.4486537E4,4.432818E2,1.0395878E4,4.4331553E3,4.9265015E2,5.660101E3,1.9888834E2,6.5751526E2,1.2169554E2,2.2432059E2,2.4558852E2,1.2886183E2],"tree_param":{"num_deleted":"0","num_feature":"9","num_nodes":"205","size_leaf_vector":"1"}},{"base_weights":[-1.1303806E-3,-1.5857723E-3,3.4965563E-1,-3.9700266E-2,2.3411855E-3,2.11808E-1,5.0843126E-1,-1.07193366E-1,-6.386291E-4,1.7470138E-2,-1.00040585E-2,7.124319E-2,2.3279144E-1,2.5788397E-1,4.904635E-1,-2.308571E-1,-7.4230805E-2,2.9980475E-1,-2.1622416E-3,-1.4668217E-2,4.1938577E-2,-4.461415E-2,-1.0763662E-3,-2.7774578E-1,-6.74828E-2,1.0271605E-1,-9.332885E-2,-1.3517407E-1,3.3094431E-3,-4.6960786E-2,2.0185994E-2,6.2245775E-2,-2.273756E-2,-8.867043E-2,6.1512664E-3,2.5751284E-1,-2.4186808E-3,-3.3331743E-1,-1.5134662E-1,7.7840607E-3,-2.873722E-1,1.9266367E-1,-1.5306772E-1,-1.3398762E-1,9.183501E-3,-2.2077706E-1,1.0967641E-1,5.559612E-2,-6.458322E-3,-3.390404E-2,-1.4431733E-1,1.7767136E-1,-2.386132E-4,1.6338213E-1,4.5306925E-2,6.3823126E-2,-3.922657E-2,7.4535166E-3,-1.2176423E-1,-3.3417535E-1,1.77451E-2,6.8324125E-1,-2.90839E-1,5.783685E-2,-6.9315094E-3,-2.2798987E-2,-2.472421E-1,-1.3290215E-1,7.765176E-2,-3.3384506E-2,1.8918498E-1,1.6063148E-1,5.3332183E-3,-2.446362E-1,3.481836E-2,-1.0692342E-1,9.274314E-2,8.2812294E-2,-8.590592E-3,-2.4623234E-2,-3.8637516E-1,-2.0400852E-1,4.400112E-1,-3.3109203E-2,6.230956E-2,-9.2832536E-2,8.5297995E-4,1.6006054E-1,-2.5632132E-2,-2.9015133E-1,-7.946658E-2,-3.7285753E-2,1.921081E-1,-3.918384E-2,2.9838175E-2,1.20193E-2,1.765484E-1,1.4406727E-1,2.4901733E-2,1.9669208E-1,3.114577E-2,-3.333986E-2,7.5909205E-2,-1.1314977E-2,1.2678221E-1,-1.8186598E-1,-5.090243E-2,-3.660839E-1,-9.267368E-3,3.001935E-2,-7.5488925E-2,2.646878E-1,5.484807E-1,1.8289228E-1,-3.3942562E-1,-1.8699907E-2,6.971975E-2,6.42639E-3,-1.4856851E-2],"categories":[],"categories_nodes":[],"categories_segments":[],"categories_sizes":[],"default_left":[0,0,0,0,0,0,0,0,0,0,0,0,0,0,0,0,0,0,0,0,0,0,0,0,0,0,0,0,0,0,0,0,0,0,0,0,0,0,0,0,0,0,0,0,0,0,0,0,0,0,0,0,0,0,0,0,0,0,0,0,0,0,0,0,0,0,0,0,0,0,0,0,0,0,0,0,0,0,0,0,0,0,0,0,0,0,0,0,0,0,0,0,0,0,0,0,0,0,0,0,0,0,0,0,0,0,0,0,0,0,0,0,0,0,0,0,0,0,0],"id":7,"left_children":[1,3,5,7,9,11,13,15,17,19,21,-1,-1,-1,-1,23,25,-1,27,29,31,33,35,37,39,41,43,45,47,49,51,53,55,57,59,61,63,65,67,69,-1,71,73,75,77,79,81,83,85,87,89,91,93,95,97,99,101,103,105,107,109,111,113,115,117,-1,-1,-1,-1,-1,-1,-1,-1,-1,-1,-1,-1,-1,-1,-1,-1,-1,-1,-1,-1,-1,-1,-1,-1,-1,-1,-1,-1,-1,-1,-1,-1,-1,-1,-1,-1,-1,-1,-1,-1,-1,-1,-1,-1,-1,-1,-1,-1,-1,-1,-1,-1,-1,-1],"loss_changes":[9.4856705E1,8.8761024E1,1.6742447E1,1.4603738E2,1.00414856E2,5.464243E0,9.35305E0,8.2757095E1,2.2931536E1,1.8997449E2,9.147771E1,0E0,0E0,0E0,0E0,3.271469E1,5.419487E1,0E0,2.5447483E1,1.175347E2,1.8014296E2,1.357762E2,8.169205E1,2.326892E1,2.4641272E1,3.5977757E1,6.0324234E1,2.8980742E1,1.7152447E1,6.889797E1,1.615408E2,1.7881522E2,4.6782593E1,1.0339256E2,1.1130296E2,2.8392688E2,6.3666878E1,1.3774719E1,1.0280649E1,1.142186E1,0E0,7.875183E0,1.6232342E1,5.182538E1,9.626391E0,6.2922802E1,7.4812485E1,1.8181547E1,2.7407492E1,3.4058704E1,5.3280502E1,1.2886032E2,1.0621843E2,1.944809E2,1.396677E2,2.2003033E1,3.4162907E1,3.4148098E1,1.6367929E2,5.6303856E1,8.612972E1,2.0651672E1,5.7113506E1,5.7607925E1,5.0160736E1,0E0,0E0,0E0,0E0,0E0,0E0,0E0,0E0,0E0,0E0,0E0,0E0,0E0,0E0,0E0,0E0,0E0,0E0,0E0,0E0,0E0,0E0,0E0,0E0,0E0,0E0,0E0,0E0,0E0,0E0,0E0,0E0,0E0,0E0,0E0,0E0,0E0,0E0,0E0,0E0,0E0,0E0,0E0,0E0,0E0,0E0,0E0,0E0,0E0,0E0,0E0,0E0,0E0,0E0],"parents":[2147483647,0,0,1,1,2,2,3,3,4,4,5,5,6,6,7,7,8,8,9,9,10,10,15,15,16,16,18,18,19,19,20,20,21,21,22,22,23,23,24,24,25,25,26,26,27,27,28,28,29,29,30,30,31,31,32,32,33,33,34,34,35,35,36,36,37,37,38,38,39,39,41,41,42,42,43,43,44,44,45,45,46,46,47,47,48,48,49,49,50,50,51,51,52,52,53,53,54,54,55,55,56,56,57,57,58,58,59,59,60,60,61,61,62,62,63,63,64,64],"right_children":[2,4,6,8,10,12,14,16,18,20,22,-1,-1,-1,-1,24,26,-1,28,30,32,34,36,38,40,42,44,46,48,50,52,54,56,58,60,62,64,66,68,70,-1,72,74,76,78,80,82,84,86,88,90,92,94,96,98,100,102,104,106,108,110,112,114,116,118,-1,-1,-1,-1,-1,-1,-1,-1,-1,-1,-1,-1,-1,-1,-1,-1,-1,-1,-1,-1,-1,-1,-1,-1,-1,-1,-1,-1,-1,-1,-1,-1,-1,-1,-1,-1,-1,-1,-1,-1,-1,-1,-1,-1,-1,-1,-1,-1,-1,-1,-1,-1,-1,-1],"split_conditions":[7.5E-1,-8.7890625E-1,-9.453125E-1,-4.8046875E-1,-8.671875E-1,-6.25E-1,-4.921875E-1,-8.808594E-1,7.5E-1,-8.769531E-1,-6.484375E-1,1.888094E-2,1.11814305E-1,1.9769311E-2,7.261281E-2,2.5E-1,-8.7890625E-1,3.7290905E-2,-8.828125E-1,-3.046875E-1,-7.03125E-2,-8.496094E-1,8.4375E-1,-1.015625E-1,-8.847656E-1,-1.25E-1,-8.5546875E-1,-1.5625E-1,-8.769531E-1,-5E-1,-2.578125E-1,-8.75E-1,-7.3046875E-1,-8.652344E-1,-9.2578125E-1,-2.578125E-1,-5.9375E-1,-9.355469E-1,-5.7421875E-1,-7.65625E-1,-3.4717083E-2,-5.6640625E-1,2.5E-1,7.5E-1,-5E-1,-8.8671875E-1,-8.847656E-1,-8.808594E-1,-8.75E-1,5E-1,-8.730469E-1,-8.4765625E-1,-7.8125E-3,-8.769531E-1,-8.28125E-1,-9.1015625E-1,-8.652344E-1,6.25E-1,-7.5E-1,-3.125E-1,-6.7578125E-1,-4.5703125E-1,-5E-1,-8.574219E-1,1.25E-1,-3.6756515E-3,-1.2098491E-2,-9.503973E-3,2.077818E-3,-5.485022E-3,1.980319E-2,3.8483024E-3,3.145933E-5,-1.0627163E-2,3.6284209E-3,-5.3641913E-3,9.1317175E-3,7.0701716E-3,-6.30939E-4,-2.2122501E-3,-2.2734249E-2,-1.2600755E-2,1.7296623E-2,-1.0359465E-3,1.6098082E-3,-2.3003698E-3,3.796816E-5,3.5915542E-2,-1.1163473E-3,-8.640719E-3,-4.540157E-3,-4.277551E-3,1.1163139E-2,-1.9981265E-3,2.1943927E-3,3.1304956E-4,4.7163963E-3,7.202685E-3,6.792128E-4,3.0139374E-2,2.3067116E-3,-1.1092543E-3,5.1578283E-3,-6.311476E-4,9.9912165E-3,-1.5326076E-2,-5.7300627E-3,-9.938378E-2,-8.241343E-3,4.1913507E-3,-5.977607E-3,6.830931E-2,7.219766E-2,1.0106164E-2,-2.5484603E-2,-1.4576018E-3,6.2640784E-3,2.266407E-4,-6.8167446E-4],"split_indices":[4,6,8,3,8,2,0,8,5,8,3,0,0,0,0,2,8,0,8,0,0,8,5,0,8,2,8,3,8,7,0,8,3,8,3,0,3,8,3,3,0,3,2,2,2,8,8,6,8,5,6,3,0,6,3,3,6,2,2,1,3,3,2,8,2,0,0,0,0,0,0,0,0,0,0,0,0,0,0,0,0,0,0,0,0,0,0,0,0,0,0,0,0,0,0,0,0,0,0,0,0,0,0,0,0,0,0,0,0,0,0,0,0,0,0,0,0,0,0],"split_type":[0,0,0,0,0,0,0,0,0,0,0,0,0,0,0,0,0,0,0,0,0,0,0,0,0,0,0,0,0,0,0,0,0,0,0,0,0,0,0,0,0,0,0,0,0,0,0,0,0,0,0,0,0,0,0,0,0,0,0,0,0,0,0,0,0,0,0,0,0,0,0,0,0,0,0,0,0,0,0,0,0,0,0,0,0,0,0,0,0,0,0,0,0,0,0,0,0,0,0,0,0,0,0,0,0,0,0,0,0,0,0,0,0,0,0,0,0,0,0],"sum_hessian":[5.937962E5,5.930273E5,7.6887476E2,5.5391938E4,5.376354E5,4.1281036E2,3.5606436E2,2.0305354E4,3.5086586E4,2.4158066E5,2.9605472E5,2.1695633E2,1.9585405E2,2.0769257E2,1.4837181E2,4.272071E3,1.6033283E4,1.2319899E2,3.4963387E4,1.0442406E5,1.371566E5,6.0707027E4,2.3534769E5,3.3188545E3,9.532165E2,1.5614829E3,1.44718E4,1.3805177E3,3.3582867E4,5.4203734E4,5.022033E4,1.0438237E5,3.277423E4,3.2500787E4,2.8206242E4,1.2143756E3,2.3413331E5,2.30418E3,1.0146744E3,7.825073E2,1.7070918E2,1.1554204E3,4.0606244E2,1.0361773E4,4.1100264E3,1.02297144E3,3.5754623E2,5.2854194E3,2.829745E4,4.779515E4,6.408588E3,5.7645625E3,4.4455766E4,1.4973259E4,8.940911E4,5.2437544E3,2.7530477E4,8.323934E3,2.4176854E4,9.283232E2,2.727792E4,6.8348596E2,5.3088965E2,1.6312752E4,2.1782056E5,1.4306831E2,2.1611118E3,8.8499536E2,1.2967903E2,6.4665295E2,1.3585432E2,9.6351404E2,1.9190636E2,2.0591647E2,2.0014597E2,9.680678E3,6.8109607E2,6.746052E2,3.4354211E3,6.5628723E2,3.6668423E2,2.019092E2,1.5563704E2,1.295639E3,3.9897803E3,1.6222096E3,2.667524E4,4.8800742E2,4.730714E4,6.543996E2,5.7541885E3,1.7023615E3,4.0622012E3,1.9325646E4,2.5130117E4,5.6593345E3,9.313925E3,5.110684E3,8.429842E4,4.2747562E2,4.816279E3,2.6049055E4,1.481421E3,7.328224E3,9.957094E2,6.336916E3,1.7839938E4,5.8408545E2,3.442377E2,2.272877E4,4.5491494E3,1.7027795E2,5.13208E2,1.379775E2,3.9291214E2,5.3935605E3,1.0919191E4,1.0239293E5,1.1542763E5],"tree_param":{"num_deleted":"0","num_feature":"9","num_nodes":"119","size_leaf_vector":"1"}},{"base_weights":[-6.5797253E-4,1.5523891E-4,-9.8629706E-2,-1.5598871E-3,1.1106848E-1,-4.2223585E-1,-7.076006E-2,8.7673875E-4,-6.659699E-2,-9.983062E-3,1.274319E-1,-1.9953936E-1,-3.8279697E-1,-5.6721758E-2,-3.6856374E-1,-4.6838806E-3,1.6579537E-2,-8.170665E-2,1.072191E-2,4.744597E-2,-1.8908092E-1,1.4099367E-1,4.9646907E-2,-1.3217667E-1,2.4311198E-2,1.1651249E-3,-3.5908327E-2,1.2291404E-2,2.2352053E-1,-1.4392677E-1,-6.6184E-2,4.9485717E-2,-8.707568E-2,-5.7906114E-2,1.1395732E-1,1.4584006E-1,-5.820771E-2,3.5589212E-3,3.0066344E-1,-5.4831468E-2,-2.3430376E-1,1.3269429E-1,-4.2708855E-2,-4.299969E-2,6.2361592E-3,-5.496104E-2,3.5067191E-3,6.049461E-1,1.126211E-2,1.8168524E-1,4.8929465E-1,-2.492884E-1,-1.20465785E-1,3.7137672E-2,-8.8485114E-2,-7.2702676E-2,4.4734485E-2,1.278439E-1,-1.7232962E-2,7.26744E-2,1.6057831E-1,-1.3553317E-1,2.0889096E-1,1.7809117E-2,-4.0827438E-1,5.2987367E-2,-1.3268101E-1,-3.662314E-2,2.395633E-1,1.6984404E-3,5.667145E-2,1.4658198E-2,-5.3023826E-2,8.8982455E-2,-1.1885406E-2,2.1999711E-1,6.2331545E-1,5.220297E-3,7.471985E-2,8.947616E-2,2.0782343E-1,2.451464E-1,4.1754037E-1,-2.7409476E-1,-1.2720168E-1,-4.015304E-2,-1.11022815E-1,-6.2221043E-2,5.473212E-2,-1.2841526E-1,-3.706439E-2,9.2924915E-2,-1.4877147E-2,9.7798385E-2,1.7568557E-1,3.538485E-2,-1.80549E-1,2.7401745E-1,-1.0505785E-2,-6.989381E-2,1.0945208E-1,-3.827824E-1,-2.0069803E-1,1.0026017E-1,-3.045476E-2,-4.442226E-2,-2.097446E-1],"categories":[],"categories_nodes":[],"categories_segments":[],"categories_sizes":[],"default_left":[0,0,0,0,0,0,0,0,0,0,0,0,0,0,0,0,0,0,0,0,0,0,0,0,0,0,0,0,0,0,0,0,0,0,0,0,0,0,0,0,0,0,0,0,0,0,0,0,0,0,0,0,0,0,0,0,0,0,0,0,0,0,0,0,0,0,0,0,0,0,0,0,0,0,0,0,0,0,0,0,0,0,0,0,0,0,0,0,0,0,0,0,0,0,0,0,0,0,0,0,0,0,0,0,0,0,0],"id":8,"left_children":[1,3,5,7,9,11,13,15,17,19,21,-1,-1,23,-1,25,27,29,31,33,-1,35,37,39,41,43,45,47,49,51,53,55,-1,-1,57,59,-1,-1,-1,61,63,-1,65,67,69,71,73,75,77,79,81,83,85,87,89,-1,-1,-1,-1,91,93,95,97,99,101,103,105,-1,-1,-1,-1,-1,-1,-1,-1,-1,-1,-1,-1,-1,-1,-1,-1,-1,-1,-1,-1,-1,-1,-1,-1,-1,-1,-1,-1,-1,-1,-1,-1,-1,-1,-1,-1,-1,-1,-1,-1],"loss_changes":[4.7308865E1,1.12028625E2,4.405598E1,9.190424E1,1.7765335E1,6.4667206E0,2.8773178E1,4.8810516E1,2.4467834E1,1.5980468E1,8.326935E0,0E0,0E0,2.67132E1,0E0,7.539357E1,1.2972055E2,1.6911179E1,1.7942438E1,7.597066E0,0E0,7.319458E0,1.987898E1,1.7856533E1,2.3345743E1,7.786902E1,4.8909943E1,8.73588E1,3.2907364E1,8.614693E0,3.2315617E1,5.892834E0,0E0,0E0,5.528608E0,7.0888824E0,0E0,0E0,0E0,2.7453445E1,4.275432E1,0E0,1.2922033E1,1.285772E2,8.878591E1,6.92755E1,5.374839E1,2.0324326E1,5.1934906E1,1.5882233E1,5.799507E0,6.0429573E0,6.879421E0,1.2889805E1,3.891429E1,0E0,0E0,0E0,0E0,6.2428274E0,1.030188E1,2.2498718E1,1.2363587E1,6.518253E0,9.55722E0,6.3419466E0,8.919007E0,0E0,0E0,0E0,0E0,0E0,0E0,0E0,0E0,0E0,0E0,0E0,0E0,0E0,0E0,0E0,0E0,0E0,0E0,0E0,0E0,0E0,0E0,0E0,0E0,0E0,0E0,0E0,0E0,0E0,0E0,0E0,0E0,0E0,0E0,0E0,0E0,0E0,0E0,0E0,0E0],"parents":[2147483647,0,0,1,1,2,2,3,3,4,4,5,5,6,6,7,7,8,8,9,9,10,10,13,13,15,15,16,16,17,17,18,18,19,19,21,21,22,22,23,23,24,24,25,25,26,26,27,27,28,28,29,29,30,30,31,31,34,34,35,35,39,39,40,40,42,42,43,43,44,44,45,45,46,46,47,47,48,48,49,49,50,50,51,51,52,52,53,53,54,54,59,59,60,60,61,61,62,62,63,63,64,64,65,65,66,66],"right_children":[2,4,6,8,10,12,14,16,18,20,22,-1,-1,24,-1,26,28,30,32,34,-1,36,38,40,42,44,46,48,50,52,54,56,-1,-1,58,60,-1,-1,-1,62,64,-1,66,68,70,72,74,76,78,80,82,84,86,88,90,-1,-1,-1,-1,92,94,96,98,100,102,104,106,-1,-1,-1,-1,-1,-1,-1,-1,-1,-1,-1,-1,-1,-1,-1,-1,-1,-1,-1,-1,-1,-1,-1,-1,-1,-1,-1,-1,-1,-1,-1,-1,-1,-1,-1,-1,-1,-1,-1,-1],"split_conditions":[5.546875E-1,5.1171875E-1,-8.75E-1,4.0625E-1,-8.75E-1,-4.453125E-1,-8.125E-1,3.75E-1,5E-1,2.34375E-2,-9.0625E-1,-2.4258732E-3,-5.8135926E-3,-8.574219E-1,-6.2818527E-3,1.25E-1,-8.75E-1,-7.265625E-1,-3.515625E-1,9.6875E-1,-2.8232872E-3,-8.6328125E-1,-8.3203125E-1,-8.671875E-1,-5E-1,-8.7109375E-1,-2.2265625E-1,5.9375E-1,1.796875E-1,-8.730469E-1,-5.234375E-1,9.375E-1,-2.0292937E-3,-8.6271163E-4,-3.203125E-1,5.15625E-1,-1.4984071E-3,5.4448843E-5,6.261951E-3,-8.691406E-1,5.7421875E-1,2.5184571E-3,-3.828125E-1,-3.125E-1,0E0,-8.7890625E-1,-8.671875E-1,-6.40625E-1,-3.0078125E-1,-9.4140625E-1,-9.238281E-1,9.6875E-1,9.6875E-1,-6.796875E-1,-3.046875E-1,-1.3302207E-3,1.177305E-3,1.5309096E-3,-3.4517646E-4,-3.75E-1,-3.90625E-2,-8.730469E-1,-6.25E-1,-3.359375E-1,-8.6328125E-1,-8.0859375E-1,-7.636719E-1,-3.1706332E-3,1.08882494E-1,5.8829784E-5,2.448821E-3,2.228272E-3,-3.6343872E-3,3.765565E-3,-4.18818E-4,8.4054746E-2,2.5792244E-1,3.437996E-4,6.2268614E-3,3.07729E-2,6.664004E-2,1.7980234E-1,2.1781473E-1,-6.1832606E-3,-2.7418435E-3,-7.4484345E-4,-2.8824091E-3,-1.2093484E-3,1.4899373E-3,-3.5461008E-3,-1.3040184E-3,2.7327477E-3,-5.706906E-4,2.0595014E-3,3.9342106E-3,6.670713E-4,-2.8716861E-3,5.014634E-3,-3.1843185E-4,-9.6384884E-4,1.453346E-3,-5.7769595E-3,-4.65523E-3,1.8679082E-3,-6.44499E-4,-8.2090497E-4,-3.3307255E-3],"split_indices":[3,3,8,3,8,0,1,2,3,0,1,0,0,8,0,2,4,0,0,5,0,6,6,8,2,3,3,5,0,8,0,5,0,0,0,3,0,0,0,8,3,0,0,1,2,8,8,3,8,3,8,5,5,0,0,0,0,0,0,2,0,8,2,0,8,8,8,0,0,0,0,0,0,0,0,0,0,0,0,0,0,0,0,0,0,0,0,0,0,0,0,0,0,0,0,0,0,0,0,0,0,0,0,0,0,0,0],"split_type":[0,0,0,0,0,0,0,0,0,0,0,0,0,0,0,0,0,0,0,0,0,0,0,0,0,0,0,0,0,0,0,0,0,0,0,0,0,0,0,0,0,0,0,0,0,0,0,0,0,0,0,0,0,0,0,0,0,0,0,0,0,0,0,0,0,0,0,0,0,0,0,0,0,0,0,0,0,0,0,0,0,0,0,0,0,0,0,0,0,0,0,0,0,0,0,0,0,0,0,0,0,0,0,0,0,0,0],"sum_hessian":[5.937962E5,5.88909E5,4.8872227E3,5.7994194E5,8.967046E3,3.8640167E2,4.500821E3,5.589999E5,2.0942035E4,1.0678453E3,7.8992007E3,1.8549469E2,2.0090697E2,4.3674204E3,1.3340071E2,4.1281575E5,1.4618414E5,1.7518512E4,3.423523E3,8.75402E2,1.9244344E2,6.7257563E3,1.1734441E3,2.2612222E3,2.106198E3,3.4768744E5,6.5128316E4,1.4321752E5,2.9666257E3,3.496214E3,1.4022298E4,2.660793E3,7.627301E2,2.9595206E2,5.794499E2,6.5837554E3,1.4200107E2,1.0511476E3,1.222965E2,1.2876027E3,9.736195E2,6.071971E2,1.499001E3,3.580921E4,3.1187822E5,4.3904883E4,2.1223438E4,2.472849E2,1.4297023E5,2.5646152E3,4.0201053E2,6.349722E2,2.8612417E3,2.489183E3,1.1533115E4,2.2817924E2,2.4326135E3,3.8722638E2,1.9222351E2,1.1048474E3,5.4789077E3,9.862779E2,3.0132483E2,3.97897E2,5.757225E2,7.26593E2,7.7240796E2,3.4964266E4,8.449481E2,2.9674925E5,1.512897E4,9.439198E3,3.4465684E4,3.0165383E3,1.8206898E4,1.2357614E2,1.23708755E2,1.3749273E5,5.477494E3,1.7490082E3,8.1560706E2,1.7683153E2,2.2517899E2,2.0291982E2,4.320524E2,1.0787781E3,1.7824636E3,6.113136E2,1.8778695E3,3.139378E3,8.393737E3,6.7360205E2,4.312454E2,4.4534995E3,1.0254087E3,3.9155704E2,5.947209E2,1.6557237E2,1.3575246E2,2.1532364E2,1.8257335E2,2.6741922E2,3.0830328E2,3.7521097E2,3.5138202E2,5.46998E2,2.2541002E2],"tree_param":{"num_deleted":"0","num_feature":"9","num_nodes":"107","size_leaf_vector":"1"}},{"base_weights":[-2.4880137E-4,-2.001159E-2,4.3497737E-3,-7.893087E-2,-1.9403092E-3,5.8061476E-3,-5.7062216E-2,-1.5795383E-1,-3.696998E-2,-6.280267E-2,1.48559455E-2,-6.184986E-2,7.3274067E-3,3.3098313E-1,-8.373802E-2,-3.6086556E-2,-2.6408923E-1,-9.5807396E-2,-3.123524E-3,-9.02786E-2,9.670165E-2,4.9705416E-2,-7.5648166E-3,1.1141549E-2,-3.447473E-1,1.4099115E-1,5.5657406E-3,-4.901406E-2,4.4763237E-1,-1.1667872E-1,5.4132614E-2,-5.0678033E-2,1.4388834E-1,-3.2021916E-1,-2.1253279E-1,-2.2886522E-1,-7.080219E-2,9.638214E-2,-2.8119717E-2,8.255055E-2,-1.11602254E-1,3.6092126E-1,6.651874E-2,2.1033566E-2,2.170641E-1,5.0020188E-2,-2.1674938E-2,-4.4405695E-2,8.175756E-2,-1.4488673E-1,-5.1445276E-1,2.4050231E-1,9.531844E-2,-1.13161325E-1,7.872964E-3,5.2100515E-1,3.487977E-1,-1.5847571E-1,-3.8038153E-2,2.0278648E-1,3.8288822E-3,-2.8659558E-2,-1.8080358E-1,-1.2882957E-2,2.8459278E-1,-1.2846053E-1,-3.6967492E-1,-2.762334E-1,-9.862E-2,-1.9065122E-1,6.4167557E-3,-5.06909E-2,-1.5116657E-1,-4.7866277E-2,3.6528072E-1,4.1796543E-2,-8.487341E-2,-1.2625271E-1,1.9342782E-1,-1.8082736E-1,-6.2234033E-2,2.8159887E-1,9.9243E-3,-2.5683942E-1,2.848962E-2,3.8368875E-1,5.9695374E-2,1.1178026E-1,3.1632077E-2,-7.370841E-2,5.1483867E-4,1.6733116E-2,-5.7504916E-1,2.3093873E-1,-1.1988961E-2,-1.5068148E-3,-2.8457823E-1,-4.3719926E-1,-3.7100703E-1,2.1319507E-1,3.5547107E-1,-3.9535076E-3,1.2375153E-1,-1.5091984E-1,1.7807555E-1,1.0066531E-1,5.657416E-3,5.9564207E-2,4.1429302E-1,-2.7590764E-1,-9.9274226E-2,1.15216784E-1,-1.5307355E-1,1.9420798E-1,8.797569E-3,8.1829436E-2,-9.972267E-2,5.591041E-4,-1.03735216E-1,-1.73734E-1,-1.8789489E-2,1.3338958E-1,-2.5189963E-1,-3.041179E-1,-2.0580235E-1,-1.6533267E-1,-2.912375E-1,8.0902185E-3,-1.6987707E-1,-1.4368461E-2,-9.497808E-2,-7.850863E-2,2.3004453E-1,3.8257608E-1,1.1833014E-1,4.0928096E-2,-8.694431E-2,-1.04726404E-1,-3.2192487E-2,-1.4536531E-3,-2.1349508E-1,-3.236689E-2,1.8856393E-1,-1.5871918E-1,-5.6246568E-2,1.21924624E-1,-5.1335678E-2,3.0046272E-1,1.0393545E-2,2.9728672E-2,-1.1871679E-1,2.7973711E-2,-6.139674E-2,3.4412128E-1,-4.012917E-2,3.1962622E-2,1.3952382E-1,1.5472709E-2,1.042504E-1,-1.1161069E-1,-3.6967404E-2,4.4840053E-1,-8.280432E-3,-9.217508E-2,7.2400294E-2,-4.794007E-1,-2.9526696E-1,2.509139E-1,-2.289094E-2,1.3677363E-1,-1.2338715E-1,5.5152237E-2,-1.4484853E-1,-3.1851295E-1,-1.4037013E-1,-3.0752692E-1,-1.1746949E-1,4.908779E-2,1.9821258E-1,-7.509487E-2,6.807098E-2,1.842213E-1,5.2954875E-2,3.5291195E-1,-1.1965626E-1,4.3021882E-1,5.737178E-2,4.7279995E-2,1.3793664E-1,7.1385745E-3,-1.1056053E-2,4.711945E-3,-3.3016723E-1,-3.702377E-2,-1.8863566E-1,4.3401908E-2,3.1187236E-1,-1.4537019E-1,3.0182522E-2,-6.4013707E-3,1.0630958E-1,-1.6761371E-1,6.1446307E-3],"categories":[],"categories_nodes":[],"categories_segments":[],"categories_sizes":[],"default_left":[0,0,0,0,0,0,0,0,0,0,0,0,0,0,0,0,0,0,0,0,0,0,0,0,0,0,0,0,0,0,0,0,0,0,0,0,0,0,0,0,0,0,0,0,0,0,0,0,0,0,0,0,0,0,0,0,0,0,0,0,0,0,0,0,0,0,0,0,0,0,0,0,0,0,0,0,0,0,0,0,0,0,0,0,0,0,0,0,0,0,0,0,0,0,0,0,0,0,0,0,0,0,0,0,0,0,0,0,0,0,0,0,0,0,0,0,0,0,0,0,0,0,0,0,0,0,0,0,0,0,0,0,0,0,0,0,0,0,0,0,0,0,0,0,0,0,0,0,0,0,0,0,0,0,0,0,0,0,0,0,0,0,0,0,0,0,0,0,0,0,0,0,0,0,0,0,0,0,0,0,0,0,0,0,0,0,0,0,0,0,0,0,0,0,0,0,0,0,0,0,0,0,0],"id":9,"left_children":[1,3,5,7,9,11,13,15,17,19,21,23,25,27,29,31,33,35,37,39,41,43,45,47,49,51,53,-1,55,57,59,61,63,65,67,69,71,73,75,77,79,-1,81,83,85,87,89,91,93,95,97,99,101,103,105,-1,107,109,111,113,115,117,119,-1,-1,121,123,125,127,-1,-1,129,-1,131,133,135,137,139,141,143,145,147,149,-1,151,153,-1,155,157,159,161,163,165,167,169,171,173,-1,175,177,-1,179,181,183,185,187,189,-1,-1,191,193,195,197,-1,-1,199,201,-1,-1,-1,-1,-1,-1,-1,-1,-1,-1,-1,-1,-1,-1,-1,-1,-1,-1,-1,-1,-1,-1,-1,-1,-1,-1,-1,-1,-1,-1,-1,-1,-1,-1,-1,-1,-1,-1,-1,-1,-1,-1,-1,-1,-1,-1,-1,-1,-1,-1,-1,-1,-1,-1,-1,-1,-1,-1,-1,-1,-1,-1,-1,-1,-1,-1,-1,-1,-1,-1,-1,-1,-1,-1,-1,-1,-1,-1,-1,-1,-1,-1,-1,-1,-1,-1],"loss_changes":[5.3964775E1,1.19345566E2,4.3083885E1,8.723294E1,8.7690285E1,4.843073E1,1.1554045E2,1.180121E2,3.4224213E1,8.131759E1,5.2529057E1,2.1367819E2,1.0836405E2,3.3616165E1,4.742984E1,1.1164725E1,1.40451355E1,2.086464E1,2.714102E1,5.8337906E1,3.444182E1,1.2628791E2,3.3241512E1,3.2272457E1,7.190988E1,2.7185303E1,1.2442513E2,0E0,1.605204E1,2.7698608E1,1.5062834E1,1.1257158E1,1.36016655E1,2.2077057E1,1.8440132E1,1.0276573E1,1.5415407E1,8.499488E1,3.4608944E1,4.0281754E1,4.8139328E1,0E0,3.0971428E1,6.500859E1,8.449492E1,9.140306E0,3.7939503E1,1.4941585E2,5.066198E1,1.9547348E1,1.7891937E1,1.3633972E1,1.1586956E1,9.524318E1,9.160063E1,0E0,2.6816437E1,3.8232086E1,5.1609947E1,7.228855E0,1.2173286E1,1.1842457E1,5.893463E0,0E0,0E0,3.549077E1,8.960861E0,9.037476E0,1.4515126E1,0E0,0E0,1.190002E1,0E0,3.4571865E1,2.7119102E1,1.0823441E1,1.2110886E1,1.33988285E1,2.0693264E1,2.7036636E1,2.160366E1,2.0867958E1,1.1783278E1,0E0,2.9396498E1,8.091951E1,0E0,1.0680643E1,6.932468E0,1.7592293E1,1.8201654E2,5.3158176E1,7.717514E0,4.7005165E1,7.585009E1,7.977036E0,6.9903946E0,0E0,6.8773804E0,1.709555E1,0E0,9.5769205E0,2.13801E1,1.0060451E2,4.166321E1,3.3158424E1,4.2387184E1,0E0,0E0,1.0202748E2,2.8882717E1,2.2038082E1,1.791988E1,0E0,0E0,5.478716E0,9.818891E0,0E0,0E0,0E0,0E0,0E0,0E0,0E0,0E0,0E0,0E0,0E0,0E0,0E0,0E0,0E0,0E0,0E0,0E0,0E0,0E0,0E0,0E0,0E0,0E0,0E0,0E0,0E0,0E0,0E0,0E0,0E0,0E0,0E0,0E0,0E0,0E0,0E0,0E0,0E0,0E0,0E0,0E0,0E0,0E0,0E0,0E0,0E0,0E0,0E0,0E0,0E0,0E0,0E0,0E0,0E0,0E0,0E0,0E0,0E0,0E0,0E0,0E0,0E0,0E0,0E0,0E0,0E0,0E0,0E0,0E0,0E0,0E0,0E0,0E0,0E0,0E0,0E0,0E0,0E0,0E0,0E0,0E0,0E0,0E0,0E0,0E0],"parents":[2147483647,0,0,1,1,2,2,3,3,4,4,5,5,6,6,7,7,8,8,9,9,10,10,11,11,12,12,13,13,14,14,15,15,16,16,17,17,18,18,19,19,20,20,21,21,22,22,23,23,24,24,25,25,26,26,28,28,29,29,30,30,31,31,32,32,33,33,34,34,35,35,36,36,37,37,38,38,39,39,40,40,42,42,43,43,44,44,45,45,46,46,47,47,48,48,49,49,50,50,51,51,52,52,53,53,54,54,56,56,57,57,58,58,59,59,60,60,61,61,62,62,65,65,66,66,67,67,68,68,71,71,73,73,74,74,75,75,76,76,77,77,78,78,79,79,80,80,81,81,82,82,84,84,85,85,87,87,88,88,89,89,90,90,91,91,92,92,93,93,94,94,95,95,96,96,98,98,99,99,101,101,102,102,103,103,104,104,105,105,106,106,109,109,110,110,111,111,112,112,115,115,116,116],"right_children":[2,4,6,8,10,12,14,16,18,20,22,24,26,28,30,32,34,36,38,40,42,44,46,48,50,52,54,-1,56,58,60,62,64,66,68,70,72,74,76,78,80,-1,82,84,86,88,90,92,94,96,98,100,102,104,106,-1,108,110,112,114,116,118,120,-1,-1,122,124,126,128,-1,-1,130,-1,132,134,136,138,140,142,144,146,148,150,-1,152,154,-1,156,158,160,162,164,166,168,170,172,174,-1,176,178,-1,180,182,184,186,188,190,-1,-1,192,194,196,198,-1,-1,200,202,-1,-1,-1,-1,-1,-1,-1,-1,-1,-1,-1,-1,-1,-1,-1,-1,-1,-1,-1,-1,-1,-1,-1,-1,-1,-1,-1,-1,-1,-1,-1,-1,-1,-1,-1,-1,-1,-1,-1,-1,-1,-1,-1,-1,-1,-1,-1,-1,-1,-1,-1,-1,-1,-1,-1,-1,-1,-1,-1,-1,-1,-1,-1,-1,-1,-1,-1,-1,-1,-1,-1,-1,-1,-1,-1,-1,-1,-1,-1,-1,-1,-1,-1,-1,-1,-1],"split_conditions":[9.6875E-1,-4.7265625E-1,-3.4375E-1,-6.171875E-1,-8.730469E-1,-9.277344E-1,-8.535156E-1,-8.671875E-1,-6.25E-1,-1.25E-1,-5.390625E-1,-9.355469E-1,-9.160156E-1,-1.875E-1,-2.2265625E-1,-8.691406E-1,9.375E-1,-5.546875E-1,-5.703125E-1,9.0625E-1,7.5E-1,-6.171875E-1,-8.671875E-1,-9.453125E-1,-9.375E-1,-8.75E-1,-9.0234375E-1,-3.714037E-3,-9.277344E-1,5E-1,2.65625E-1,-8.7109375E-1,-8.75E-1,-8.6328125E-1,-8.4765625E-1,-8.671875E-1,-8.730469E-1,-8.7109375E-1,-8.6328125E-1,-8.90625E-1,-5.703125E-1,5.1273704E-2,-6.796875E-1,9.0625E-1,9.375E-1,-2.421875E-1,-3.046875E-1,-9.472656E-1,-9.921875E-1,-9.765625E-1,-2.265625E-1,-8.9453125E-1,-9.765625E-1,-5.7421875E-1,-8.925781E-1,1.2180903E0,-8.808594E-1,-8.0078125E-1,-7.3046875E-1,7.5E-1,3.75E-1,1.25E-1,-8.75E-1,-6.971955E-5,1.1328113E-2,-7.890625E-1,-8.4375E-1,-6.2890625E-1,-6.2109375E-1,-9.8786475E-3,1.3228774E-3,-8.6328125E-1,-6.6669164E-3,6.25E-1,9.0625E-1,-5.3125E-1,-3.046875E-1,-8.984375E-1,-2.8515625E-1,-5E-1,-8.8671875E-1,1.25E-1,6.25E-1,-9.387523E-3,-6.484375E-1,-5.703125E-1,2.122003E-3,-6.25E-1,5.15625E-1,9.375E-1,-2.578125E-1,-8.769531E-1,-1.171875E-1,-8.75E-1,-8.769531E-1,-3.75E-1,-8.769531E-1,-9.76047E-2,-9.375E-1,-9.238281E-1,3.2362223E-2,-8.769531E-1,-9.238281E-1,-9.765625E-1,-8.75E-1,-8.9453125E-1,9.765625E-2,8.178157E-2,1.5680356E-1,-2.5E-1,2.65625E-1,-7.8515625E-1,-5.625E-1,1.0773945E-2,1.0178804E-3,-3.046875E-1,-7.8515625E-1,3.8802624E-5,-1.1237657E-2,-4.8836647E-3,-1.0826349E-3,5.852979E-3,-1.0865778E-2,-2.5220245E-2,-2.6263367E-2,-9.034085E-3,-1.3857502E-2,6.875992E-4,-1.0055721E-2,-4.6826006E-4,-8.4548E-3,-6.7116856E-3,5.0717115E-2,5.418757E-2,9.777092E-3,2.9938102E-3,-4.1059433E-3,-7.5016734E-3,-3.7331462E-3,-3.8051603E-5,-1.4740908E-2,-7.047891E-4,8.68386E-3,-3.5955845E-3,-1.2195706E-3,8.191275E-3,-1.2026309E-3,6.779319E-3,1.0150432E-3,1.033318E-3,-9.303701E-3,7.820606E-4,-1.5488922E-3,2.6882958E-2,-1.5111744E-3,6.9498416E-4,4.206079E-3,4.0246246E-4,2.5713623E-3,-4.059881E-3,-1.1708796E-3,2.5279492E-2,-3.5464764E-4,-2.4931477E-2,3.019228E-2,-2.341584E-1,-1.9319351E-1,3.6342952E-2,-9.351015E-4,2.1838283E-2,-2.5775457E-2,3.6519526E-3,-7.457455E-2,-8.116566E-2,-2.8208088E-2,-8.519554E-2,-2.9119657E-2,3.1093836E-3,1.4546978E-2,-1.0495984E-2,8.8984845E-3,2.9122328E-2,7.648873E-3,2.180482E-2,-1.4273691E-2,3.256458E-2,7.3136687E-3,4.25694E-3,1.3028585E-2,3.1776426E-4,-3.2577515E-4,3.9287447E-3,-8.607782E-2,-4.4321776E-3,-1.4161789E-2,1.4243066E-2,1.2981613E-1,-1.6895996E-2,3.240311E-3,-5.491614E-4,4.6774265E-3,-7.7359914E-3,6.298542E-4],"split_indices":[5,3,1,0,8,8,8,8,2,2,0,8,8,1,3,8,5,0,0,5,5,0,8,8,1,2,8,0,8,2,8,8,6,8,8,8,6,8,8,8,0,0,0,5,5,3,0,8,3,3,0,3,3,3,8,0,8,3,3,2,2,2,6,0,0,3,8,3,3,0,0,8,0,2,5,3,0,8,3,2,8,2,2,0,0,0,0,2,3,5,0,6,0,6,6,2,6,0,3,8,0,6,8,3,2,8,3,0,0,2,8,6,6,0,0,0,6,0,0,0,0,0,0,0,0,0,0,0,0,0,0,0,0,0,0,0,0,0,0,0,0,0,0,0,0,0,0,0,0,0,0,0,0,0,0,0,0,0,0,0,0,0,0,0,0,0,0,0,0,0,0,0,0,0,0,0,0,0,0,0,0,0,0,0,0,0,0,0,0,0,0,0,0,0,0,0,0,0,0,0,0,0,0],"split_type":[0,0,0,0,0,0,0,0,0,0,0,0,0,0,0,0,0,0,0,0,0,0,0,0,0,0,0,0,0,0,0,0,0,0,0,0,0,0,0,0,0,0,0,0,0,0,0,0,0,0,0,0,0,0,0,0,0,0,0,0,0,0,0,0,0,0,0,0,0,0,0,0,0,0,0,0,0,0,0,0,0,0,0,0,0,0,0,0,0,0,0,0,0,0,0,0,0,0,0,0,0,0,0,0,0,0,0,0,0,0,0,0,0,0,0,0,0,0,0,0,0,0,0,0,0,0,0,0,0,0,0,0,0,0,0,0,0,0,0,0,0,0,0,0,0,0,0,0,0,0,0,0,0,0,0,0,0,0,0,0,0,0,0,0,0,0,0,0,0,0,0,0,0,0,0,0,0,0,0,0,0,0,0,0,0,0,0,0,0,0,0,0,0,0,0,0,0,0,0,0,0,0,0],"sum_hessian":[5.937962E5,1.1208736E5,4.8170884E5,2.630844E4,8.5778914E4,4.7055072E5,1.1158116E4,9.12361E3,1.7184828E4,1.8551947E4,6.722697E4,1.0346887E4,4.6020384E5,7.169816E2,1.0441134E4,4.247671E3,4.87594E3,6.274916E3,1.0909912E4,1.5826189E4,2.7257578E3,2.6318256E4,4.0908715E4,8.225544E3,2.1213423E3,5.9854814E3,4.5421834E5,1.616567E2,5.5532495E2,8.427702E3,2.0134324E3,3.9297817E3,3.1788892E2,2.3319336E3,2.544006E3,9.9138763E2,5.2835283E3,2.1898057E3,8.720106E3,1.7378624E3,1.4088327E4,1.8211754E2,2.5436401E3,2.2469852E4,3.8484038E3,8.050632E3,3.2858082E4,4.6042036E3,3.6213403E3,9.749757E2,1.1463665E3,1.8816024E3,4.103879E3,8.657648E3,4.4556072E5,1.3714418E2,4.1818076E2,5.5022656E3,2.9254358E3,5.083027E2,1.5051298E3,3.3621025E3,5.676793E2,1.970632E2,1.2082571E2,4.7884998E2,1.8530837E3,1.6306904E3,9.133157E2,8.381036E2,1.532841E2,4.6417407E3,6.417878E2,1.4257799E3,7.640259E2,3.907108E3,4.8129985E3,6.027082E2,1.1351542E3,5.8636025E3,8.224725E3,5.2905536E2,2.0145848E3,4.228013E2,2.204705E4,1.6987048E3,2.149699E3,1.8458623E3,6.2047695E3,9.822556E3,2.3035527E4,4.129398E3,4.7480576E2,1.3969214E3,2.224419E3,4.8163474E2,4.93341E2,6.466242E2,4.9974228E2,1.708835E3,1.7276743E2,9.1390656E2,3.1899724E3,7.664444E3,9.932042E2,1.0389271E4,4.3517144E5,2.012149E2,2.1696587E2,1.8429446E3,3.6593213E3,1.2543445E3,1.6710913E3,3.647096E2,1.435931E2,8.5859784E2,6.465319E2,2.6981536E3,6.6394904E2,3.9442862E2,1.7325069E2,2.0138483E2,2.7746515E2,9.9584344E2,8.572403E2,1.2697335E3,3.6095694E2,5.180408E2,3.952749E2,3.426783E3,1.2149578E3,1.2184307E3,2.0734918E2,3.962454E2,3.677805E2,3.551107E3,3.5600098E2,1.8050453E3,3.0079531E3,3.562338E2,2.4647437E2,2.7325592E2,8.6189825E2,4.0236501E3,1.8399523E3,3.6827368E2,7.8564507E3,3.4017563E2,1.888797E2,1.7060564E3,3.0852847E2,2.0066463E4,1.9805873E3,1.3646672E3,3.340377E2,1.0524551E3,7.934072E2,5.739713E3,4.650565E2,1.9237109E3,7.898845E3,4.348902E2,2.2600637E4,1.5225228E3,2.6068752E3,2.74578E2,2.0022774E2,9.4130096E2,4.5562036E2,9.831421E2,1.241277E3,3.4672223E2,1.349125E2,1.6147638E2,3.3186462E2,3.731281E2,1.2661415E2,5.618785E2,1.1469565E3,4.5217102E2,4.617355E2,8.171142E2,2.3728584E3,2.265454E2,7.4378984E3,1.7825256E2,8.1495166E2,7.7334487E3,2.6558228E3,3.5915262E5,7.60188E4,7.5452435E2,1.0884202E3,2.8766956E3,7.826257E2,1.0813291E3,1.7301537E2,1.3072406E3,3.6385074E2,3.738661E2,4.8473172E2,2.8207425E2,3.6445764E2],"tree_param":{"num_deleted":"0","num_feature":"9","num_nodes":"203","size_leaf_vector":"1"}},{"base_weights":[-7.353293E-4,-1.8034218E-3,7.273851E-2,2.0562552E-3,-1.7623384E-2,1.06551135E-2,1.1739326E-1,-4.578806E-3,1.9947486E-1,-6.005612E-2,1.2590829E-2,-1.1359027E-2,2.3418069E-1,7.679869E-2,1.801285E-1,4.143487E-3,-2.8774383E-2,1.7223496E-2,2.3093869E-1,2.8468437E-2,-6.823443E-2,4.3041766E-2,-1.5164135E-2,-4.3880574E-2,6.408643E-2,7.817288E-2,2.731145E-1,1.8757133E-1,4.1811086E-2,8.588968E-2,2.8339806E-1,-7.4891923E-3,2.0051737E-1,-6.496629E-2,-6.8207877E-3,4.3771584E-2,-2.1048531E-1,1.0255631E-1,2.5119618E-1,8.198226E-3,2.1969822E-1,-8.095297E-2,-1.14556E-3,3.3696853E-2,1.1519766E-1,-6.501026E-2,2.4862647E-2,1.6784795E-1,-5.933683E-2,2.1826477E-1,8.964517E-2,2.5090277E-2,1.311359E-1,2.54238E-1,1.5010042E-2,-3.6099253E-3,-4.7232687E-2,9.11265E-2,3.6459717E-1,-2.1741569E-2,-8.166244E-2,2.4384972E-2,-2.1999968E-2,2.2171141E-1,1.4898891E-2,5.9657734E-2,1.7737466E-1,1.6161186E-1,2.7301815E-1,-3.1010106E-2,7.6972574E-2,-5.4898206E-2,-1.1494844E-1,-1.18738554E-1,1.3024038E-2,6.8583034E-2,1.9113176E-2,2.5473684E-2,1.3716073E-1,-9.006815E-4,-8.850982E-2,-4.406596E-2,4.2391207E-2,-1.805384E-2,-8.38043E-2,7.955215E-2,-4.883468E-2,-2.2292817E-2,2.1899941E-4,-4.8675794E-2,-1.7344233E-2,1.6605012E-2,1.5728769E-1,1.18416384E-1,3.0191743E-1,2.0443435E-1,-1.9197587E-2,-6.2575184E-2,2.454603E-2,2.5085641E-2,-5.971039E-2,2.5476115E-3,-3.673087E-2,2.8279746E-2,-1.0101129E-1,2.4148714E-2,2.0974568E-1,7.615858E-2,3.056054E-1,3.6160666E-2,1.939851E-1,-5.562191E-3,-2.1126586E-1,6.9914125E-2,-1.04516625E-1,-2.0249588E-2,-6.801282E-2,-9.438921E-2,-7.7203237E-3,1.9985484E-2,-1.1111377E-1,3.3253092E-2,9.52928E-2,6.34554E-2,6.77178E-3,-1.0465337E-1,7.48909E-2,1.3079208E-1,6.0127653E-2,3.8699917E-2,-4.315125E-2,-7.726549E-2,-5.6636333E-3,1.5264394E-2,-6.542813E-2,3.7396695E-2,-3.994265E-2,4.058692E-2,-8.503571E-2,1.3585E-1,2.7821898E-2,-9.345106E-2,2.8570618E-2],"categories":[],"categories_nodes":[],"categories_segments":[],"categories_sizes":[],"default_left":[0,0,0,0,0,0,0,0,0,0,0,0,0,0,0,0,0,0,0,0,0,0,0,0,0,0,0,0,0,0,0,0,0,0,0,0,0,0,0,0,0,0,0,0,0,0,0,0,0,0,0,0,0,0,0,0,0,0,0,0,0,0,0,0,0,0,0,0,0,0,0,0,0,0,0,0,0,0,0,0,0,0,0,0,0,0,0,0,0,0,0,0,0,0,0,0,0,0,0,0,0,0,0,0,0,0,0,0,0,0,0,0,0,0,0,0,0,0,0,0,0,0,0,0,0,0,0,0,0,0,0,0,0,0,0,0,0,0,0,0,0,0,0],"id":10,"left_children":[1,3,5,7,9,11,13,15,17,19,21,23,25,27,29,31,33,35,37,39,41,43,45,47,-1,-1,-1,49,51,-1,53,55,57,59,61,63,-1,65,67,69,-1,71,73,75,77,79,81,-1,83,-1,-1,85,-1,-1,-1,87,89,91,93,95,97,99,101,-1,103,105,-1,107,109,111,113,115,117,-1,119,121,123,125,127,129,131,133,135,137,-1,139,141,-1,-1,-1,-1,-1,-1,-1,-1,-1,-1,-1,-1,-1,-1,-1,-1,-1,-1,-1,-1,-1,-1,-1,-1,-1,-1,-1,-1,-1,-1,-1,-1,-1,-1,-1,-1,-1,-1,-1,-1,-1,-1,-1,-1,-1,-1,-1,-1,-1,-1,-1,-1,-1,-1,-1,-1],"loss_changes":[4.6599464E1,3.5737797E1,2.3586727E1,6.163022E2,1.4717014E2,1.7523653E1,1.2589172E1,9.606648E1,8.77251E1,3.4566254E1,5.6668343E1,1.0855678E1,6.0574684E0,1.1643589E1,1.1491108E1,7.6431854E2,9.58339E1,1.9032375E1,3.3904358E1,2.3358456E1,3.7291916E1,2.1554611E1,6.998888E1,1.0819321E1,0E0,0E0,0E0,5.2927685E0,5.5577745E0,0E0,1.4494518E1,4.870037E1,3.3582025E2,3.2863815E1,3.556277E1,1.639292E1,0E0,1.1500977E1,2.1983337E1,1.0172442E1,0E0,3.2535583E1,1.6632263E1,1.4400707E1,7.219837E0,2.353682E1,2.3509098E1,0E0,5.825822E0,0E0,0E0,8.26356E0,0E0,0E0,0E0,3.1877535E1,1.4067051E1,1.0108547E2,9.750946E1,2.2640766E1,2.9646988E1,3.0863586E1,3.9462936E1,0E0,7.648924E0,8.36382E0,0E0,3.2039787E1,8.2144165E0,1.5004896E1,7.114112E0,2.2827782E1,3.295082E1,0E0,1.7143028E1,1.1875103E1,1.3479883E1,1.0314607E1,7.4837074E0,1.4309303E1,2.0105583E1,1.2840382E1,1.7023153E1,1.0936038E1,0E0,5.378992E0,6.6157827E0,0E0,0E0,0E0,0E0,0E0,0E0,0E0,0E0,0E0,0E0,0E0,0E0,0E0,0E0,0E0,0E0,0E0,0E0,0E0,0E0,0E0,0E0,0E0,0E0,0E0,0E0,0E0,0E0,0E0,0E0,0E0,0E0,0E0,0E0,0E0,0E0,0E0,0E0,0E0,0E0,0E0,0E0,0E0,0E0,0E0,0E0,0E0,0E0,0E0,0E0,0E0,0E0,0E0,0E0,0E0,0E0],"parents":[2147483647,0,0,1,1,2,2,3,3,4,4,5,5,6,6,7,7,8,8,9,9,10,10,11,11,12,12,13,13,14,14,15,15,16,16,17,17,18,18,19,19,20,20,21,21,22,22,23,23,27,27,28,28,30,30,31,31,32,32,33,33,34,34,35,35,37,37,38,38,39,39,41,41,42,42,43,43,44,44,45,45,46,46,48,48,51,51,55,55,56,56,57,57,58,58,59,59,60,60,61,61,62,62,64,64,65,65,67,67,68,68,69,69,70,70,71,71,72,72,74,74,75,75,76,76,77,77,78,78,79,79,80,80,81,81,82,82,83,83,85,85,86,86],"right_children":[2,4,6,8,10,12,14,16,18,20,22,24,26,28,30,32,34,36,38,40,42,44,46,48,-1,-1,-1,50,52,-1,54,56,58,60,62,64,-1,66,68,70,-1,72,74,76,78,80,82,-1,84,-1,-1,86,-1,-1,-1,88,90,92,94,96,98,100,102,-1,104,106,-1,108,110,112,114,116,118,-1,120,122,124,126,128,130,132,134,136,138,-1,140,142,-1,-1,-1,-1,-1,-1,-1,-1,-1,-1,-1,-1,-1,-1,-1,-1,-1,-1,-1,-1,-1,-1,-1,-1,-1,-1,-1,-1,-1,-1,-1,-1,-1,-1,-1,-1,-1,-1,-1,-1,-1,-1,-1,-1,-1,-1,-1,-1,-1,-1,-1,-1,-1,-1,-1,-1],"split_conditions":[3.046875E-1,3.90625E-2,-2.5E-1,7.8125E-3,1.484375E-1,-8.691406E-1,3.203125E-1,-2.578125E-1,-8.046875E-1,-8.75E-1,-4.1796875E-1,-8.5546875E-1,-8.671875E-1,-6.9921875E-1,-2.734375E-1,-3.046875E-1,-1.640625E-1,-5E-1,-8.828125E-1,-7.8515625E-1,1.953125E-1,-8.574219E-1,-7.03125E-2,-9.0625E-1,2.7610362E-3,7.069087E-3,1.9700551E-2,3.75E-1,8.75E-1,1.0673642E-2,-8.3203125E-1,-3.671875E-1,-3.046875E-1,-8.730469E-1,-5.9375E-1,-9.355469E-1,-2.5062656E-2,0E0,-6.2890625E-1,2.5E-1,4.662064E-2,-3.4375E-1,-8.769531E-1,1.953125E-1,-5E-1,-3.3203125E-1,-8.7109375E-1,1.6156578E-2,-8.730469E-1,3.722665E-2,